4
625
30
30
3
0.42932435713612377
0.799650548729719
-0.11545092405137855
0.8504636619306417
0.30041243560065484
0.4078957735121178
0.18352856708276113
0.08888447767559914
0.1302613408894092
0.1776672508745601
0.5970482708383724
-0.3398118707032157
-0.3617624204780611
-0.009181655236697091
0.032608555728177516
0.037886406888062836
-0.007314809066805223
-0.049123943117864305
0.17355551514130949
0.05724014960778018
-0.37167969948125285
-0.3757301782603091
0.033131717118038806
0.23527933291005917
0.6805067699132378
-0.4528500323912768
0.0020888962153934897
-0.12285722807036263
-0.10222807470122706
0.28491237319636237
0.03330696971311598
0.26576920024480555
-0.23399800426720901
-0.29343630593656134
-0.09183527772978459
0.10923142071146671
0.4896542292121857
0.08203611898709691
0.17111687785170213
-0.09812769303335508
-0.44854072042144466
-0.08485641212704126
0.33072938509770383
0.007011840586974625
0.28123297935671404
0.42357355868925395
-0.1475784534985759
-0.1521267926458679
0.39482065504170305
0.4355412060243103
0.42631590840320144
0.298224493044061
0.10289958690265447
0.15322535372670104
-0.156205091196302
0.08817563827259758
-0.2881630716954363
-0.3049095689845942
0.009725433319334193
-0.27164003459674424
0.18077061050910204
-0.42048538430240756
0.3074530262759759
-0.049965811042067654
0.09833649234586797
0.49780667919474064
-0.028702200974532098
-0.019354943627118967
-0.01723885480501836
-0.10694551885323025
-0.4703373682080671
0.12892217609907228
-0.17323834133354857
-0.09696037632092905
0.1353905301516137
-0.193205791088616
-0.09581481175575655
0.03753489132460909
-0.13370745707241383
-0.027164582354626217
0.15274400258996423
-0.014092512055930208
-0.3617056912769227
-0.09312736949564805
0.050083920250024866
-0.13808758678696004
-0.24816074338637917
-0.4192760739368833
0.1894649288811558
-0.16894594027041332
-0.50375337261859
-0.3772680438009617
0.026384665424570082
0.14639220020182558
-0.18360729687771557
-0.06994156568722604
-0.07211309275518121
-0.0747514246776753
-0.4660608034241581
0.3412091817413387
-0.040293541650955916
0.1409238491510586
0.2750244466033143
0.1693316863170535
-0.2489027484645461
-0.177000398704677
-0.246534854991051
0.48282274947664855
0.20489105815478723
0.015634197164938645
0.13774120406790288
-0.39350794886818297
0.11320206197755146
0.12483453430387605
0.5435587130831312
0.20342120492674962
0.001583087371657915
0.09426266263149542
-0.06457289777515761
-0.07915409470432921
0.16292054982568727
-0.12447933199281352
-0.12709063492739042
0.26127246172132274
0.012266384889897203
0.3411466124228847
-0.07675996568840077
0.27269144465376943
-0.0979952371629881
-0.06982020778455396
-0.11980749434734891
0.3049632581468191
0.33394480969430884
0.2658946607156435
-0.23508048082038174
0.270756451519059
0.015456579602892994
-0.13667870427792153
-0.18327413710219326
0.042765785886819736
-0.1172522748444351
0.022656835240298573
0.03247346642993799
-0.3076200126721504
-0.0671824251680446
-0.1864752963086621
-0.08361659194781958
0.2536778148261443
0.08760910153831479
0.22389747885195818
0.17429678117764685
0.431021870870464
0.1038862586899456
-0.21841979008342308
0.019696197420010074
0.11629345583387042
-0.1973049844109014
0.5614534437764336
0.009012461329417758
-0.10582174503963582
-0.051449329191569894
0.30269674077407205
-0.11401681967278393
-0.007086560237857753
-0.048937375372294666
-0.06256843916501277
-0.42334288407442594
-0.08650031327810666
0.05279908029758959
-0.3230016120100576
-0.3307910806038874
-0.21102060936039077
0.38998279306211336
0.14262918664529015
0.39602715077298106
0.4090081326138689
0.042837766712561606
0.007812419393974635
0.0960542063806755
0.06940812776229785
-0.3335895653952676
-0.14218054071205916
-0.07827252091738188
-0.18613055608565612
0.002179849683636643
-0.436445518040134
0.13322095440548526
0.03902591502433054
0.3958877565207019
-0.2779718839988588
-0.18531371788189674
0.04860323983804428
-0.35616449751476886
-0.006807982490224088
-0.4233865704127972
-0.2182413212584654
0.024701717460059763
-0.10083322483003082
0.493708977012349
0.4849991709190973
0.1293024128266414
0.39628025850226434
0.6799547550292916
0.03906562821892783
0.10204218436491047
0.17465773473174956
-0.468003094071721
-0.1422232053503249
0.060137294372032406
-0.01435277006921029
0.10339085660093632
-0.051860136907097655
-0.056917145542180136
0.14658913607973872
-0.1433860101840546
-0.18887324023655003
0.08225102953680405
-0.1737574986576234
0.03312050306379016
-0.29762209463888034
0.16601246346938134
0.3284004634877069
0.5935045055251883
0.3203137214421795
0.3265003195871104
0.09332519084096061
0.23188597905366784
0.084891783192989
-0.060917515982177206
0.24257478693557805
0.09826096066006196
0.21776820943221953
0.4916178686143661
0.2971782416653639
0.22242453172789817
0.1140930084959951
0.26807783648688405
0.17389238622833428
0.031732434515573296
0.06006214819099494
-0.09483937589097852
-0.07533814125915161
-0.09981372533718365
-0.148477787803816
0.1135864978297677
-0.005314366246024308
-0.29203569384549055
-0.1660381183653155
0.022176538830274112
0.39263485161125505
0.7254806007634894
0.5142037386549212
0.3993001750514574
0.3275125951876487
0.3980564063411814
0.07426499287009823
0.23056632251206619
0.24510666417118704
0.280625342880371
0.4622784282599651
0.4836838483083527
-0.046197108840457975
0.10095818103112963
0.5052800268937949
0.30388952118259527
-0.10059470122694625
-0.11338117950723907
-0.44195661444781686
-0.02373363442013852
0.2620197677046067
0.3580216623488018
-0.034202104614287916
0.13410253824753515
-0.013070436664692294
-0.09320742701804542
0.27214610416820906
0.05482837458884585
-0.029922098352960315
0.4221482793802661
0.2415732151388532
0.053769228564773744
-0.054640879824714425
-0.014824286840194321
0.36560314332175436
-0.1955381315257171
0.31589791435836445
0.4249691193988149
0.3701834894377382
0.3596180163744888
0.21247392130273746
0.46469116536029925
0.16894998679810463
0.25469519743871805
0.16331348180427988
0.14032768639394358
0.14156260879787688
0.3761175101528376
-0.1199044226650211
0.05619907075217984
-0.19560016773378072
0.1705568338860636
0.21268434354894866
0.01358327152512451
0.5012743350668784
0.22295447743793545
-0.16681957243096973
0.5029335650602822
0.1085798624915236
-0.16771632061906724
0.47201071403718164
0.1763924464808117
0.24346168863130319
0.14913497144252036
-0.015837475802545763
0.07646831508293402
-0.1307234255956108
-0.016518864508089898
0.2809683929937567
0.003979703505753121
-0.0026587071943947422
-0.10996318698010885
0.28235114344303475
-0.029935152137726746
0.09749234024414316
0.015524416840952732
-0.0944078685718382
0.3346260780956098
0.3749181989632582
0.3422614023848953
0.35078052831069645
0.2319284614048125
0.05657223692988394
0.359459447369756
-0.05091362890659334
0.2998190274904964
0.027682317519761246
-0.025240696729357456
0.08069049726218935
0.3769530605358483
0.2054768820146804
-0.027094727551990806
0.033387868268736715
0.5339850173423686
0.3323394351597695
0.2120077229532987
0.10047908839028162
-0.015602863129027011
-0.16401176852318375
0.1745467343620381
0.2516929109572812
0.513819558613995
0.6046507527624793
0.1989031130741816
-0.0008400206813587178
-0.1719703290048168
0.6733038560034403
0.1661553282386533
0.21195232384754206
-0.18286531288511446
0.24058901151111803
-0.25759553486931913
-0.2027262322890676
0.007439855998183734
-0.03345385168683898
-0.10219671691982972
0.02840089509144532
-0.17925830979909554
0.06911297654696104
0.16588534732041352
0.10561521033782341
0.07891174098659823
0.020526187119857122
0.01342074537707983
-0.4227477710961042
0.012980469559852534
0.6436207896715985
0.2698055587812084
0.33816242895460435
0.024191849403122773
0.2031202955571338
0.05122710436057937
0.013116954385863388
0.28863926000471724
0.2573925651271803
0.3735695206170776
-0.19079391375365407
-0.14423506652815687
0.24194303238878917
-0.04087003422081808
0.29287204979396403
0.15044644011406197
-0.04640086571596274
0.21947035120671868
0.0807734509656694
-0.39429522298479913
0.2234383451067832
0.10543502351745168
-0.27807466133421144
0.13781170110128182
-0.5949262173993712
-0.397822295202917
0.5664425925108948
0.12520257365322865
0.17738242204895519
0.28138656718974464
0.5170849153704034
0.07931581018380411
-0.09865875744557484
0.718634881846252
0.14987512096611624
0.622878204995372
0.2905462608618293
0.17315957289817088
-0.3888793643054279
0.3160949773427428
0.09207672490067291
0.32019911352147923
-0.156382633569475
0.3702207881113123
0.3370219060435923
0.2277085505518996
-0.4985102469749852
0.04109855641604142
-0.0732608774100988
0.1761223339837141
0.16010015318258206
0.5994405589583287
0.23699371694712976
0.1690652452647739
0.13183208346965636
-0.30488264466557835
-0.17771799350300554
0.5835657285573941
-0.060450988665863965
0.3995799736208144
-0.024610318334303806
-0.006246135294821178
0.16952225625575476
0.3459679249452044
-0.04302300637347598
0.3634361768819112
-0.13482736952687216
0.23036458814392402
0.26890411104832834
0.055198271594290804
-0.010058518824590456
0.49510420815032413
-0.10581659983858215
0.22643074670446314
0.11899040709618006
0.15065310959175027
0.5475069326190986
-0.1755164346917977
0.13050170620283483
0.41409452684555137
-0.05046627596527119
0.39813330754853626
-0.058082006741348995
0.2822715750117054
0.03782502724822363
0.5064322010857573
0.17685338197358952
-0.08878925455737835
-0.22021683175753454
0.06584172699053242
0.20421782098647948
-0.24659730147399023
-0.42917446691537003
-0.278792213140084
0.028364479223574997
-0.29274397951474934
-0.17149971963523342
0.10408899962548743
0.46837523497350947
0.42494458893834064
-0.07626462867235731
0.2778485792865845
0.31314213299257165
0.3140001569122213
0.22920687796862854
0.5383653536435316
-0.24053062341343392
-0.12735133013352165
-0.13347056685426434
0.33248389387484045
0.002841427302367471
0.2939352186988889
0.19987719517361438
0.33163334514491627
-0.06306841497360513
-0.24511758574578923
-0.3480603974078271
0.3104763644608358
0.14439587470213464
-0.18427038148786415
0.028806892046294438
0.04559726698046798
-0.045637765358767964
-0.28876041453094814
-0.12229366759424203
-0.41636002078361123
0.08266104315064873
-0.03488663691075459
0.24980498968361126
0.005534932980965655
0.038959918935630784
-0.14220129880627308
0.22161443873588604
0.0671977653734759
0.05389956535000859
0.04323030454552492
-0.11121055940302646
-0.002846494141953345
0.0942354192902469
0.5950474435709284
0.07993385550915563
0.1929646164328945
-0.33471522951035476
0.13837625581078516
-0.3043958158537963
0.03319930853640765
-0.09633829598271172
-0.39153100826881915
0.41211420066524157
-0.16112531130631316
-0.0740759404789771
-0.395985710122364
0.2908004688823799
-0.09158454364264945
0.19501852751639917
0.3481894626852403
-0.03045689385093158
-0.12796756904211312
0.02395318093845914
0.021473804986647513
0.6836833536532054
-0.1702444817027864
0.07600025650175414
0.009428136029516178
0.27267558191474234
-0.3329570834579768
0.17073149946631208
0.10355627870424
-0.1232254138223621
-0.3000213955265674
0.11108834600292045
-0.09235423986334074
-0.2147085007220692
-0.09246124528885215
0.43335274925497264
-0.06299346583092517
0.01896180630460935
0.3790989766017082
0.20042805435484184
0.23085859302772985
0.03992792073892214
0.025888221156804885
0.4156919718827178
0.24393240887724946
-0.3551770086072599
-0.024257569795178666
0.12329743397228442
0.12358384645763856
0.5911484560109282
0.1776621230409687
0.10558470445382043
0.11816676922514643
0.13124243722724552
-0.22862358511360037
-0.21158603955393987
-0.23634947340810009
0.22943638085477994
-0.23701251789899755
0.24256555997305557
0.15427891578926614
0.16807048008475484
-0.23718981890873844
0.12526487602262326
-0.13596137261813576
-0.11084570334365995
-0.05483624811927823
-0.30661242398477007
0.17661494144005624
-0.10695402984372229
0.0030535728170887075
-0.34566092611368404
-0.10395869812298941
-0.09868320952189047
-0.12226812152641331
0.3527659691548613
0.1377362093958746
-0.07253593652377821
-0.01847381868900923
-0.14179924541340463
-0.028957383192252877
0.08226480942803753
0.28312411452210245
0.2509434148130355
-0.014558099934212771
0.6520383250638472
0.5939782287235024
-0.05204939293226388
0.23354731218005742
0.1482339782234829
0.23372369401210372
0.12960160606661367
-0.4341605696336949
0.24067759369456138
0.296671535058427
-0.42733826984661605
-0.23144838022042863
-0.12788234213271457
0.1461782608478594
-0.15529857457682394
-0.13643573803811634
-0.09998914615937511
-0.23658546945109485
-0.15443835210976273
-0.06995412796417318
0.10316738006886753
-0.036549466350870946
-0.11686252955857976
-0.04136737597503493
0.2627468950967658
0.269581395596416
-1.8331865777917826
-1.106072889525244
-0.8788721948224203
-1.393860949547315
-0.6991948335295836
-0.6762944430383644
-0.34165702307154616
-1.2224585984911556
-0.9494824727507273
-0.40742012185485993
-0.8232455320503989
-1.0222291620256185
-1.0492913807525357
-1.1947953946579215
-1.1399465927079317
-0.7253605910244298
-0.976232126013164
-0.12403841142341479
-0.3808816068124075
0.041651004501506286
0.19386295311254556
0.6393136624309272
-0.15002238328719272
0.7073084067164404
0.3466339409650094
-0.5026972333027763
-0.5934401327129805
-0.7808893505957734
-0.5523822254957199
-0.5316833350015953
-0.5179993342704305
-1.050455629423301
-1.0334625616682334
-1.0012899493230691
-0.7721661027866902
-0.7522687474577768
-0.8083907559303445
-0.8160355062961198
-0.92682122870817
-1.0915604105161483
-0.02732995303464671
-0.15140295757884145
-0.468517761452548
-0.2100183238961235
-0.025957081936356166
0.840995276316188
0.27827644212056973
0.9527220873155647
0.7707294843386027
0.29932326350157795
-1.034077236838247
-0.8794559189716523
-0.7524465310540945
-0.6535804404931964
-0.5656015344435259
-0.36432210978509055
-0.6873386347811975
-0.4898291436354783
-0.7114380237378353
-0.5827341247897126
-0.6870785618157267
0.26968567400582255
-0.03505029684851218
-0.5389334722595773
0.49047770137093694
0.2798741927905157
-0.09112924449975573
0.16737020481719786
0.031496126664540054
1.2441918028196137
0.37722332222654287
-0.08699671670628788
0.5254820244928637
0.05224015174024127
0.8195686656517451
-0.5550422485612236
-0.24072180073955157
-0.28208290235706596
-0.09561726626053195
-0.12083842697198993
0.06931214247212937
-0.4292754631146807
-0.7798255327528018
-0.37979559988294265
0.0057154873583425865
-0.2644028434704409
-0.9901758948541897
-0.4309125505727566
-0.3942832739878737
-0.6517130107312408
-0.21376434444574707
-0.26778232073461833
-0.05324470919898661
0.7217102282081055
0.06763234139565705
0.24441597612305668
0.20117936211984247
-0.6790557043095259
0.39095043312682076
0.5004875821483035
0.4331948930706812
-0.2568156944766608
0.14106921128642008
-0.08517026649264495
0.15223127097821537
-0.037739441046879804
-0.23985919064741867
-0.048205155413213574
0.49736790262023906
-0.34360145162821215
-0.5307904085300703
-0.4204392789674925
-0.40476327852369315
-0.6358625578423885
-0.363855123960791
-0.1939962232792855
-0.21168421326593806
-0.00248029928484803
0.17569908828573708
0.05567430978972463
-0.40156160932600093
0.21086250432026474
-0.18854527710410973
0.5384666657927697
0.8724583103507003
0.11219429501109103
0.3427768208638736
0.26000087813468264
0.0838577565547267
-0.3905247174141451
-0.07545400580010274
-0.5578959570670818
-0.4916144362913475
-0.3314918022616233
-0.20529932581514565
-0.069796223436355
-0.9971876914254401
-0.6095537546655184
-0.8135600643883354
-0.9499428315485188
0.15910156987394522
-0.09032261394628453
0.4614523567261916
-0.3304080797862459
0.45137594118016816
0.07965880183099727
0.019951512743098577
0.08178339497002066
0.8521341287093231
0.6428460742903489
0.11398740740108236
0.014031444701523312
0.3020170128975406
-0.15244029087837233
-0.05308557987364861
-0.1825566372246604
-0.17908606948785036
-0.04869512443679333
0.15944922732672215
-0.7378310577372841
-0.5245476832685678
-0.4552667522244176
0.07485138812311573
-0.7564490230565198
-0.18730401467580485
-1.102228455148294
-0.399455831793316
-0.11421648980403697
-0.14342541844897094
0.20876318162180446
-0.16496782211755665
0.44601585485415246
0.5896031085502033
0.5376903913909109
0.9202139321048788
0.43405870327790463
-0.04840308816354702
-0.2547331127732329
-0.25815640180429844
-0.3266069090459351
-0.3105061922641855
-0.4425568669989364
-0.08895842824959209
-0.21933772227125226
-0.5777428808655353
-0.40343705126000184
-0.23059985277202583
-0.10241038662011158
-0.6172794374268256
-0.5395554227308186
-0.7577517142686203
0.1597773482502599
0.06778093668302507
0.05566474066073464
-0.07648451410178791
0.5697155795774824
0.09518525501313452
0.23805455788354285
1.236173410005577
0.6503466100505019
0.1914641674429086
-0.21307555947057677
0.0809137479105509
-0.27620967740806296
-0.09250569388018075
0.20516390792912903
-0.36968871099436806
-0.17210866708442843
0.5160469351569106
-0.021130281278022134
-0.6157951776327434
-0.22456884146906475
-0.13119117966118532
0.03787243488699251
0.22998095901419724
0.33860017182878854
-0.005624988562558893
0.031201489542863847
0.9406633113400269
0.9909544016433807
0.7547446196562637
1.0280544752558305
0.6464145855366544
0.2534247307479262
0.459525609592966
-0.288964142054473
-0.1493705761482558
0.49756681635068234
0.002377968218006991
-0.023991247131224275
-0.3996359557571961
-0.45140442675239134
0.14709184347381254
0.1507664521868864
0.35485852258019845
0.27491713081735525
0.7888586215906818
0.628745598814934
0.6332920816400992
0.802710990377627
0.8421186313912378
0.33767490669342803
-0.1729415359811933
0.6623499825572955
0.6132393205505994
0.5521183304580753
0.5355194601312192
0.5316622312048532
0.5094584885609291
0.2863024202506942
0.8479837443340654
0.4780937860796075
0.4567158201515281
0.5204378952075136
0.28355588132845966
-0.0007615388831052776
0.16359221642600924
-0.20438554251001262
0.07906715528054852
0.48389583211164705
0.39810045119129917
0.26404853753784807
0.596542159744067
1.138180934899379
0.2433600047442222
0.6764860515609481
1.3825525995768229
0.8778664813964636
0.6385343419393472
0.4625792595405685
0.6287879339073424
0.6183672500527441
0.7293057267711867
0.018929991233302686
0.4053052769112378
0.6258545249557249
0.7993350376427003
-0.15693774372406855
0.34058221130458605
0.22372588124439466
0.2856433072420329
0.9746244231795105
0.4199453177997983
0.5400406856574553
0.37256496999922956
0.5822403659127827
0.3480286156838182
0.33462183287150216
1.0995727713695451
1.0574864299070854
0.3491881963647438
0.3293219097888051
0.4464219040989709
0.7730560617451423
0.5294535828104526
0.23445088545703155
0.2751119849150013
-0.04806863415117176
-0.39284000655316675
0.3910639954209274
0.5787902744053325
0.3695209987794435
0.2219741333317859
0.17283319989192433
-0.04534787225248347
0.31924280720308856
0.11662329868116118
0.21922320522992783
-0.4502027122357327
-0.2984396065038589
0.3489514669210033
0.6596359718832805
0.1715286989970315
0.9874790499566807
0.023183667538625392
0.3497738971733825
0.06905019536399552
0.42482193806703544
-0.05796592967374743
-0.090659407028555
0.25335602547336006
-0.108796574413633
0.03044094787680259
0.1465445331968534
0.5805840479826675
0.4264641929805023
0.5080359105502381
0.5706050224144031
0.1641092995861361
-0.30268127909038184
-0.11775472310932071
-0.16234750963763028
0.02629627703003864
0.15690868897622395
0.10768504759077141
-0.1093610291795745
-0.20990653042657342
0.355552922296828
0.13294455546720543
0.4783076576505786
-0.46098006217383075
0.35209535799811104
0.3384061527988913
0.552922090320385
0.5773004650893409
0.06677784750383377
0.10597155012070747
0.034027283710850204
0.052583036461011555
0.7749871410384631
0.5969591966671598
0.45884356360123557
-0.9836639754780496
-0.3692947411456233
0.22115461818422377
-0.45131896982331476
-0.2347532044394369
-0.6282875250955768
0.028990456815954264
-0.03540579838625029
0.1410501861457663
0.5778652140895219
0.35770664176828626
0.29648810932421144
0.4497110886250748
1.6508000522435713
0.2680513752506321
0.2678750455548385
0.28032922849834285
0.12316180400425546
0.23303079791887504
-0.1655927041187607
0.3909429712111285
0.14054259174824202
0.024284397565554852
0.08626851728961049
-0.06755885848464889
0.3726912446423381
-0.07577543487919357
0.03532944790076121
0.1430132489553703
0.3493723604314664
0.3193513707758979
-0.18162379751989374
0.20314930215822
1.0883358012447262
0.9220152981450545
0.7627244278756613
0.6737957433140818
0.26392424268130005
0.17520794370831616
-0.08779387711773612
0.049220815470064745
-0.1332382342630469
-0.26265167477536205
0.49208439553400657
0.5247377605887794
-0.2827289747123083
-0.44838956626768534
0.24493749175041382
-0.44678378779028893
0.1396539284070663
-0.47439700983643585
-0.19119845039318395
0.19908375940155087
0.7947858876725512
-0.545139047020537
0.28450451437352453
0.21171773986176473
0.284045110188088
0.2516884474476223
0.5453382050462747
0.3546343433844368
-0.2661500381167533
0.4417253027095887
0.13165498239242515
0.47596561555266126
0.25322777963550686
0.573093640900845
-0.5561572040949897
0.2526050401948406
-0.7367069937346633
0.43352492102907825
-0.34668589176210646
0.2516659520087601
-0.7884961707571374
-0.2954740011996605
-0.48038345300746066
-0.1039074264851963
0.2932020847022324
0.2609574911849418
0.282524638080958
0.11572490224064742
0.25892746941094014
0.16973265759633535
0.3796741422248426
0.1862462917090564
0.7196296292671945
-0.19958582297887584
0.19565993220072064
0.6298397012985621
0.47388113840493984
0.8721453340272266
0.2457313000485586
-0.7742876830822628
-0.899042899740202
-0.04172290488009696
0.44687691163293985
0.7381803623246184
-0.035530493609427165
-0.8705136452694215
0.083530167918057
0.07620019378054502
0.18525551168072188
0.5495986745775149
0.6815251382992358
0.8692930047566728
0.08554112570436821
0.33054566471812225
0.023023536772870255
-0.15146860725168218
0.24874328979682941
0.5624096049210207
-0.101793864510759
0.2903953801092709
-0.16657578261496084
-0.45910395541279986
-0.5499377212462936
-0.492268483388911
-0.48111084090436856
0.03006272067061732
0.20155127256436772
0.5780947260947938
-0.3857390212900684
-0.007005315167000155
-0.2488920498796231
-0.073172204729719
0.9055265839109999
-0.03648212286562808
0.34585431359727253
0.38005143440074274
0.5620176061633423
0.6122354276902963
0.6837382294075358
0.42967850109028094
-0.5101123735974522
-0.40778795454435185
-0.23053719666438952
-0.30382554366012476
-0.01126368980442957
-0.019184790451877584
-0.11278742458041505
-0.3585676781205062
-0.08282743317268267
-0.05245715021870601
-0.43016464503486457
-0.4434352730399512
0.06942285297728513
0.3200884421475918
-0.32755313615457543
0.32384274327413654
-0.1835215204805933
-0.15766474992934243
0.38503204763551563
-0.17100303305696643
-0.10638049632102951
0.1575639123394436
0.3768563957754175
0.5364270181016864
-0.09861598066999214
-0.058669848059292685
0.13134228621955996
-0.5118779748693596
-0.07489413919240896
0.03429529955441741
0.457729813030874
0.6765561732737532
-0.34118621547785766
-0.40751128551146737
-0.5265586805954692
-0.5600870888062692
-0.3014402651466895
-0.2731319997539227
-0.259864574077431
-0.6525670137667074
-0.01923000241805663
0.008579026241740855
0.32407999513747404
-0.015182183883915054
0.1839131399380662
0.3296578071073801
-0.12445977892645001
-0.019447010896090126
-0.22742203110477374
-0.5452338119340894
0.04716893758336584
0.045989241941075065
-0.2515396653263717
-0.5791403576011244
-0.4022408632270393
-0.25332893055700756
0.05318399553116159
-0.7053205105225306
-0.6447688002282654
-1.112443139900658
-0.7965806503530753
-1.164688395722312
-0.7979531676472028
-0.7751224322140126
-0.7367599461582564
-0.026601987786930865
-0.20910864488725553
0.10330023070293287
0.29932033391890184
0.0021062387911950876
0.15641971914488248
-0.061557823674473044
0.6029237721109502
-0.29861786787750866
0.24372984287333568
-0.33249700748145355
-0.24358367655252314
-0.08947614317006533
-0.3642226300451057
-0.227945705331593
-0.13691385202986625
-0.43694564657362694
-0.32423274513838285
-0.9652548140767669
-0.6822391200343284
-0.6464849374981407
-1.1867155001501817
-1.1431313430916505
-0.6893578167226556
-1.2447972058219652
-0.3515905776308397
-1.0464106945947058
-0.5655799434022447
-0.20434786201195457
-0.244138409536312
-0.007727223686166208
0.014608695487967923
-0.04737663835181161
-0.1531347029910627
-0.16627022596447394
-0.06772291554929874
0.08471789215202559
-0.4313389292713108
-0.19152692483797223
-0.35797265954672514
-0.3278547558109305
-0.5157116541349375
-0.3586840490403372
-0.5924601828517395
-0.28832315357229965
-0.8215699135911088
-0.9487155198179917
-0.7200496140872409
-1.1483389190194777
-1.1734652166541475
0.28575807588142904
-0.6534474508890683
-0.7467003491496463
-0.39254225392939773
-0.41353621469577156
-0.5197780064085499
-0.9440938327600499
-0.6466626892161148
-0.5755381742058772
-0.4326862091042177
-0.28675731198393073
-0.7348940966587907
-0.7015662440466355
-0.6513502077600601
-0.8698467758445052
-0.8190149525647157
-0.6344036594215523
-1.1864762033111655
-0.8246983606529849
-0.7382450701031169
-1.0548908369774816
-0.7072309085119111
-0.4153764929637823
-0.9519944059702528
-0.6083990032320031
-0.37260641403879563
1.0383840581358392
0.3929676340033172
1.0586593315224262
0.5769571108855268
0.44437975087554055
0.4052985083200237
-0.04898396669211964
-0.07745283470787746
0.03301138640730353
0.1704058585480939
-0.3352768215769651
-0.11600336548779011
-0.14839406658370707
-0.052920476246430995
-0.338009101006653
-0.019955597135777912
0.18698617298495557
0.5052141928865063
0.22158478752940328
-0.681011585235221
-0.7384414142099631
-0.907510333394733
-0.3723150976776818
-0.13133268930458694
-0.8592666575261806
0.35022449801344613
0.08124795951626919
-0.5032393317102675
0.1281169257114627
-0.570330348953111
-0.09030938431739749
-0.14467332359079016
-0.10804484484637442
-0.0934800814327353
0.22704055327908737
0.12059840620177159
0.2050026123950716
-0.07238848590327199
-0.2362394113557565
-0.16827991066534995
-0.3462978169545509
-0.15501304581401973
-0.45780331179259315
-0.3718829174188727
0.03540762951352647
0.009967998222567024
-0.28610178987413154
-0.26875070558793557
0.4013839831838121
0.5453133890075044
0.4048041230347911
0.3041439967264432
-0.27009036979114137
0.44984080709903607
-0.11978428813638213
-0.08366180458627165
0.3023233074415183
-0.08577657509415111
-0.3262417509037329
0.11023933413764644
0.01578694252937937
0.3613014263126736
-0.6164184642890415
0.015862163321813456
-0.31934648652057174
-0.292979094305722
-0.3937836554356546
-0.6114776874671998
0.29748346413651156
-0.05536145947742844
0.30724593022611446
0.2816031675977527
0.08675093028490628
0.8826482354377588
-0.16831758078651132
-0.22863797002232997
-0.21194505474496617
-0.4882824266440141
0.14817846667351556
0.20237094335223432
-0.13214878836606908
-0.31698468987875084
0.3603944941906784
0.3821783230352124
0.004056339311875954
-0.21814194992426356
-0.059138446970362864
0.1662426920031221
-0.16976981344573822
0.1443261786619482
-0.4717050185463728
-0.6602635547761957
-0.15694584060573485
-0.4822343328037434
-0.15081209709830026
-0.670251868491176
-0.07940657910557279
-0.24261880530277566
0.0349779193139401
-0.09795458428793687
-0.525814838352464
-0.15163407929485492
-0.3118271299544062
0.08453624446851735
-0.2513169593629633
0.09350117239142265
0.052005500086607225
0.3982861523374986
-0.22537994088999178
-0.05215378926878824
-0.3797445914231376
0.4565608225536793
0.6742902703526945
-0.017271560450736568
-0.21438670479058872
0.45195441398100844
0.13431448238518645
-0.13782014214208874
-0.29286143733358544
0.09019002115610612
-0.14015545129152499
-0.06776391869037493
0.24141183021365495
0.37816804134241977
0.2536323911173853
-0.24857323848719545
-0.4286438298057879
-0.4865499903021639
0.041563712759992974
0.08526719382916878
0.05262139239275568
0.3465923027728012
-0.13998281264703274
-0.08230988557240937
0.22484775566487175
0.45279979058350234
0.6178417664339401
0.2958558479761959
0.5241057483525728
0.01809040270092932
0.14086163743696817
0.11002056594373599
-0.4774657778982763
-0.34921856192952216
0.020903482973202027
0.002897596377207827
0.3933765990841069
0.13712154433304358
0.18550875423745922
0.16376738141647484
0.10719852949853029
-0.26288754145793636
-0.35034449022029235
-0.77805586613119
-0.11745390886589258
0.07233786164964467
0.3237901814174508
0.2827525166899507
0.13218432803944877
-0.1578200971370369
0.2873310505342811
0.31111958528393274
0.19547299580047361
0.2667958098115827
-0.19720774368714716
-0.2717508646128387
-0.22840570231248317
-0.36225287700350745
-0.19365353487368772
-0.30328479825702254
0.08391593153563302
-0.1817700354416788
-0.21728143698718583
0.21453100015166213
0.4164949622774663
0.1891670485057612
-0.10868234046491726
0.07653014837149807
0.3744020089421631
0.09780852944271158
0.04293750856634946
0.23346326310387588
0.3745061534039353
-0.18269069805985488
-0.5276174643525038
-0.34788068693564766
-0.3858796562798292
-0.4672366832298618
-0.04192052369927324
-0.5353886971182261
-0.32599999456488055
-0.6515977426864158
-0.28453397365306127
-0.699425618136034
-0.21432014617763676
-0.01437858748970013
-0.33965846055287635
0.3592252626933998
0.22605178605790924
0.08757157752965813
0.5840036952645912
0.6663228728727658
0.14944380654115194
-0.14299548006363122
0.2815203166156755
-0.15177307672687693
-0.315304137524686
-0.057088235814512875
-0.14088790040250246
0.035601916490721565
-0.005117604210011352
-0.42446657640093605
0.02448281667496716
-0.49917177922994205
-0.6595853300712934
-0.2559207633785189
-0.6358581888177621
-0.2848992824511258
-0.6013572150465952
-0.25846127041362266
-0.20169644456948366
0.36507934790261326
0.15079720268084895
-0.12232481816908017
0.25393275774317026
-0.06741005440721749
0.22435309351339747
0.12925490266181344
-0.23962117457006865
0.0745148883579846
-0.30604470950358875
0.14565572854621164
-0.02223314268702029
-0.015965634690231198
-0.2900796152309542
-0.23921423371584769
-0.6223985688427685
-0.42587377311096447
-0.5867380061355107
-0.371517895440521
-0.49438872615113405
-0.8153107074345552
-0.5619939503951497
-0.39178502720576225
-0.0794829100894716
-0.26444800256170276
-0.14735267645811634
-0.24398332135221806
0.1480546921373697
0.24287429915667835
0.25215176316124566
0.3502813570784156
0.20262389239635784
0.5786940303454436
0.106398049681372
0.07599974040012225
-0.3861607148180911
-0.199024787851911
-0.10698739739248192
-0.2278109580804926
-0.14822725208356805
-0.16416026149337123
0.07479457945253253
-0.14742379826722474
-0.16755332031515568
-0.06324692493135159
0.28130674613729645
-0.0338205720023925
-0.08724580281433891
-0.09328228126838303
-0.3360234874330903
0.4405423169807008
0.34733369455987845
0.05597554720846634
0.29608186798286207
0.07018373513778389
-0.0035363258679278523
0.5950390953787915
0.11313774504238497
-0.334783546557756
0.20564002490495095
-0.2943997702128378
-0.5359913087787139
-0.1851062582163104
-0.19255722917621204
-0.024326898828883406
0.1454693592453887
-0.20322674807249147
-0.27077731219573425
-0.20473420241412907
-0.2705087140973029
-0.03079327200268899
-0.2235830881777227
-0.2074621304817584
0.36975831336400766
0.6135683056692977
0.11822549843593097
0.32306526570358873
0.024791488222124472
0.23410894076119637
-0.1390015711037385
-0.05750774525005037
0.10950001219002765
0.2686499617228782
-0.4482060193309208
-0.09642200806943325
-0.1840730695552523
-0.47753315522616324
0.06704051190737047
-0.22240793362626957
-0.1464328856649422
-0.3429719031787863
0.07060250926055447
0.1978847292605987
0.2161707198564812
-0.058255111637057364
0.8160744723634268
0.40721525334658715
-0.07434370592510638
0.1800490885733161
0.4105198064652632
0.4653812863977635
0.2896557241500165
0.16410159150946266
0.3624900327903277
0.2947639487964988
0.27234503281243416
0.4805175641004945
0.5240482618933948
-0.46783558903927247
-0.16359265665604947
-0.25395783802168986
-0.2686472888609481
0.060617037210853264
-0.24985230679450096
0.16796865235747427
-0.1619241564744184
0.11752251781025559
-0.030072018749069215
0.07378199506703519
-0.03162395599666819
0.07981701971592595
0.4442715167977175
0.09491485021617663
-0.2511095527583459
0.043841675566045075
-0.49661129242769886
-0.1089628221229705
0.7673995632627841
0.5431590354028757
0.6632357527165889
0.3123201413494516
0.2920512137628635
0.4045958134952197
0.07652946629024172
0.2867051941425286
0.47719793023608303
0.021591037081803665
-0.14950330382967905
-0.6283952809378902
0.017653477196810152
0.11764963568904284
-0.12594880273700493
-0.24597383121133465
0.2167578080626314
-0.009648331050978622
-0.47251407540569884
-0.15954532039776248
0.3514688045469309
-0.0950148715085038
-0.13589128022920816
0.4332464096612168
0.08076760828354884
0.3985690147558448
0.8047388860135153
0.7927247670099485
0.31782091662595735
0.25298479896923354
-0.21091144501005876
0.3770227378884706
0.023386692653073925
0.30921420882071904
0.24890211817647573
0.16390588045203863
0.22512425451246132
-0.19109008566129163
0.2528675264357914
0.35123098678103387
0.5617162016726288
0.4181062611898031
0.5165751017911058
0.6725150114822942
0.3409790893956091
0.13420430008418877
0.24504948990809913
-0.08865398698236741
-0.18699680532706014
0.34232893010315474
0.45663611261652753
0.35116259706257186
0.453155724687472
0.4589775547432005
0.05302275324745992
0.5742165054461382
0.1391753857928066
0.13850804958662216
0.16710680928374244
0.5501615419295162
-0.15330768274970685
0.29731384023400675
0.3758879952906887
0.04101803452725473
0.16691269253132873
0.850920809923799
-0.1448582898680408
0.14338771561390015
-0.028270245709356878
0.3154783977753515
0.45633322878321697
0.5023288679502516
0.5474273461280275
0.2344174149056583
-0.1432197213126855
0.4718395757816929
-0.22131302796487046
0.38302171634925475
0.09500637494592443
0.40554017657221825
0.07155917403690432
0.23762765710611383
-0.02309594271882089
0.4275926201530282
-0.17623075892135717
0.26658213917988843
0.2684154239135502
0.3949548682759992
0.46846945738465723
0.15787603491585783
0.09423206630987961
0.632862325564617
0.16186983824946063
-0.05233838171242973
0.42760948686575634
0.7343479705959387
0.3977583355790088
0.42968957196196095
0.2954799171735288
0.4352709483032309
0.3142605993329849
-0.4912217894591017
0.16702982898591429
-0.2775879949633072
0.6594084516747393
0.026001844529802566
0.2165342857593037
0.1817107644839947
-0.03712933049348812
-0.06207769525565993
0.047484034973929105
0.5039595364710581
0.060850575111409816
0.5183272939793913
0.3657530886636854
0.2534002951852457
0.25498353378857685
0.726134996184926
0.5698844768300647
0.21056266472804666
0.7127084773358835
-0.062204975169508236
0.06233894958772644
0.5138034279301926
0.4216227872681552
0.7174773567729
-0.3658582140963817
0.08130999916111721
0.07949087795999842
0.12921490322514131
0.06089960995907914
0.5280372341583
-0.4126342439170297
-0.26303677923646557
0.349847599244819
0.22985628153922283
-0.009748197577815056
0.38757963983383864
0.08275348770392314
0.309616965893102
0.3166303213847892
0.29980862773260947
0.4651653181289687
0.4554943526007819
0.2730640206120362
0.9119332477422399
0.6696503306047337
0.053777769031259116
0.3038007112943556
0.2647303990654376
-0.09908990620289893
0.016226536820923048
0.09558849502084973
0.13984128162252613
0.20787668872400444
-0.03330414131046683
0.42484681871124164
0.3803383379919104
-0.040372518779469686
0.08041276213054974
-0.17852426843257993
0.6682123837301828
0.2335410198577571
0.5061180328062734
0.23147651473101075
-0.26798768390960265
0.12360244088052119
0.24480674625586205
0.23229199036384876
0.49301808074170483
0.31670364461694783
0.18040042543639495
-0.3521421494403437
0.07074095502932755
0.3499376637553874
-0.07521106981424176
-0.3766873584015138
-0.04923699053128596
0.27959607761460803
0.334680623240376
0.2574370668767908
0.3281217641204736
0.2721203906299866
0.07094763598928913
0.06544734915655204
0.28439439971093067
0.3781005676055366
0.4985859788346269
0.20918545042085163
0.12403412713770834
0.43125502503959773
-0.30125893128123615
-0.06098099493944401
0.436472306401638
-0.1418064853771405
0.26778418815699745
0.2460694691679115
0.28802654571735087
0.15032653714933808
-0.14084883621986227
0.3132028654222187
0.10361803241426401
0.15856176661542934
0.4717456553737623
0.19869923197796496
0.5348021978056943
-0.08230790958325021
-0.6409342652110036
0.6105523725867978
0.3704856979548634
-0.07782475887615235
-0.007560111588945089
0.13850753904108337
0.3058916101067655
0.2638535736142922
0.26259654726769693
0.44627713056298507
0.0013649985532277315
0.4191002519305692
0.016353500775309296
0.08129676881782663
-0.25531641757168466
0.18767653511652657
0.5697663645567805
0.33741814580675894
0.06723578932165643
0.45998003103398966
-0.26595391071184205
0.45977541547086126
0.2912951175983412
0.17599440457532614
0.11645277679995333
0.10501787080551397
0.20627320451474349
0.41816415154617287
0.08753578040289205
0.11728100108803093
0.006003621067285154
0.1409109764377095
0.32817843800797847
0.45417998964374084
0.3077240377736756
0.08906176951312474
0.5476645649824661
-0.3145180004542459
-0.04460077838773492
0.40530926602373357
0.5948258555243412
0.546760119442426
-0.012688103928949597
0.6310360902942874
0.7064670598182511
0.16964333447851918
0.1228188440546683
0.2766476527676183
0.06676670177484245
0.46539603069810714
0.13564765477987334
0.04076530935968903
0.07944788407594244
0.1500835110183767
-0.13172728451502405
0.17054805176549098
0.01369945434482654
0.13885964897539174
0.06450710921007892
-0.06739793927865304
-0.049509151807518935
0.32170157207315847
-0.26801161247920957
-0.14870954323159197
-0.307940978147791
0.11265070368350133
-0.027402456961939152
-0.012854242116498167
0.19333479687069488
-0.052055917248197255
0.024322639968262495
-0.08470855399072859
-0.07373520421515554
-0.03023162392140782
-0.1580668051379078
-0.23948148983014972
-0.337531086552645
0.2450118774420684
-0.28073204704467325
-0.1796909747092061
-0.025183238056382333
-0.11580911223417686
-0.4781133159712814
0.1512257266757438
0.1709614119598056
-0.353108347958535
0.40041139857433045
0.128107414419562
0.44761476365912184
-0.1209365786324034
0.21254164664324313
0.1505956704753891
-0.0005047285358174692
-0.1249622914294525
-0.21772744756177723
0.15011784512178286
0.2710026184045863
0.05561883911786789
-0.12624993042798036
-0.1950077654180845
0.013040583244349223
-0.11147505353252883
0.018946189377704335
-0.1334284533913412
0.03582756491790545
0.28473602984905355
-0.08210626864931614
0.0887990509846597
-0.10016516258668647
0.13398701891611076
0.1516451927916272
0.25441141310018545
-0.04311297956364584
-0.11914589515516001
-0.2725439467598765
-0.3968851669140165
0.04851364997023131
-0.016664681838126888
-0.17460653662568726
0.24847916689717386
-0.16279332033783012
0.22900132501515166
0.35175172911388036
0.12007139772426438
0.3498148649234746
-0.006539747521492559
0.21660429595702646
0.141384689527108
0.03472000666359761
0.11291311052222666
0.23695919530618545
0.24785484162801727
0.05585741686522332
-0.2189080806354331
-0.20566403921149026
0.037810280618100295
0.012504908397736877
0.029266619653174526
-0.08232377466145044
-0.047131864669079156
-0.003828782203108215
0.03381379443436763
-0.09262734256734766
-0.15306526461561462
-0.10950119438810302
0.09212187272465579
0.17521396768118166
-0.17920231631960878
-0.039104419136783926
0.03499991339726735
-0.2277028790113795
-0.2283796387363893
0.09948560742614239
0.06745434401127272
-0.028479521250208827
-0.0870470312178143
-0.11461251523391372
0.0631520821010141
-0.339592952588274
0.3527962519689489
-0.11425858633725836
-0.07833194852981547
-0.10467952291935187
-0.15587231654772365
-0.13900410519005593
0.15032767342441994
-0.2152008891824072
0.020107437249201072
0.2371737524542727
-0.07803958559955167
0.21658960143122863
0.0977802439810671
-0.28536158561972935
0.22322987950164702
-0.14688393794394192
0.005666360548060592
-0.035302022127730974
0.04414707287300116
0.3412168694741222
-0.12060450513392314
0.1799602445655283
0.07390697707821002
0.1045388767739199
-0.1472686970505206
0.20011555825265048
-0.10290853763383655
-0.024227532135290292
-0.050306313460725595
-0.012436939104657343
-0.38577137194841615
0.034667276057064156
0.09781338306864663
0.0007486281938608894
0.22600731544327218
0.12152863075381613
-0.016141403500574133
0.03991877356164181
-0.24731036593666444
0.10449039451151826
-0.23228408928182473
-0.19565225203255407
0.11498403284532166
0.10020236315952696
0.041058098863006876
0.009498518026085189
-0.14709151153078115
0.0624324965397466
0.14132495576538098
-0.3409943086463216
0.1375506372492478
-0.05251372903008175
-0.0027467874652686718
0.13064353513987906
0.04772745802333972
-0.1163594692060611
0.3383416362005166
-0.38393591029389124
-0.25755760024891133
0.09314594980873885
-0.27993762547610107
0.042197714216644394
0.16631632069595395
-0.030056188499280184
0.10411601453178175
-0.19222879308062527
-0.2861157431233957
0.2502420576621218
-0.2383971856882715
-0.3117900396629665
-0.1496227858873177
0.2031030721703273
0.0492891566420026
0.04559446515328452
-0.1195707186293454
0.06436516015105317
0.032253379686003905
0.1196889169839062
-0.1560274239502685
-0.08830772810760677
0.13477843650379526
-0.04919451134738414
0.18746613805190562
-0.32401058254453896
0.1078397309199945
-0.1763697269547299
0.030848950300766016
0.02691903896611429
0.029244186670240195
-0.07820787025332102
-0.3798679726024098
0.13090200773785185
-0.14973742018017058
-0.17667727078111925
0.10321420964586418
0.01793949070753421
0.31185938039198247
0.10408357144723754
-0.2636087153801256
-0.07939900358817427
0.1658490887908055
0.19274017784463934
0.019511040927231913
-0.04277187150415144
0.0328881729714282
-0.012660855170868889
-0.28194789218088273
-0.17676439593402796
0.17766945829156994
-0.3760543536295132
-0.3961516616593937
0.15220807090566607
0.029647027465707396
-0.028428822026725156
-0.1484564477441495
-0.16392255508224793
-0.06830571053533636
0.28119495256755006
-0.15182145247375942
-0.13027421077071707
0.04205189209523989
-0.1647142791771939
0.35988324812513567
0.13900188833182073
-0.021884254482856767
-0.34952201159666907
0.20770324824594455
0.24811086560912535
0.13617934440788662
0.014867205132323421
0.010344379712379092
-0.06804753086880158
0.14950047945937306
-0.11156345129147442
0.07387608427118328
0.32523248485095746
0.2627323198241312
-0.22299527614573847
0.1463654459287628
0.13559421768330518
-0.21561595073526366
0.285279284876157
-0.056591970941000595
-0.24813904765131792
-0.16573199436719072
0.031786986185121255
-0.2252293911250899
0.19780106133292039
-0.31092331566622117
-0.16855950696861108
-0.06839287903568929
0.07890894462873599
0.2591312666378478
0.22084571953424914
0.1262776632295081
0.261966673666694
-0.11289765019811024
0.13429758494365043
0.001020567438510668
-0.3177327247229221
-0.24410772277268614
-0.33645800307255946
-0.28324265869697846
0.30773188365351717
-0.28532179376516675
-0.11030294026014069
0.2170635252096493
0.1898686026653896
-0.24594410682262743
-0.21842878215727224
-0.05813914911920961
-0.0778093477003842
-0.07429363390510493
-0.23186715115097076
-0.03720582279074852
0.15767750953901213
-0.2575662525988642
-0.21531002369688101
0.35802445765467245
0.22617870760916112
-0.2695997215839263
-0.050104973476695486
0.2281484226579573
-0.18507757373740047
-0.11925048027519491
0.11876164107836332
0.3113392926725797
-0.020368734543511992
0.1102810895994062
-0.059019029622057004
0.07447772289925766
-0.3312231338022471
-0.2583663062155798
-0.09538978633129677
0.047711041541813534
-0.01494906499455245
0.05950086722625213
-0.07604849569236855
0.01997481658093928
-0.26100019072969777
0.10103906611388895
0.18659681121066593
-0.08863262190545003
-0.06014318553193628
0.238462548033969
-0.11357720830887048
0.05304916640994853
0.043869008718532033
-0.08355184835937648
0.12725727800164946
-0.032091011726602434
-0.2481190909458485
0.26833986197008686
-0.020969456428153718
-0.14754586841440204
-0.12737215207313066
-0.2814329095364554
0.16592262553559875
-0.15802539002682534
-0.03436820211766001
-0.1312607600733771
0.18687969371707738
-0.12171252978689523
-0.2099076777742382
0.13188575979719047
0.0022145662024584973
-0.018999775700743935
-0.034193576737083
-0.15157992096983008
-0.12754930376530574
0.09208422311659589
-0.31716692518412365
-0.14275172065221983
-0.1437441968831645
-0.08525577387436778
-0.19466014201644175
-0.1458089286827828
0.049626561684554905
-0.296288758554968
-0.08616309649025057
-0.10110612056592613
-0.034985634821944375
-0.19396965511663652
-0.07123400876539439
-0.3297178788293561
0.018953727335060105
-0.005375771924268613
-0.04248475547627467
0.08252991897203824
-0.15955963355707503
-0.20274566343972586
0.05724399585464729
0.13100586662628033
-0.0749937818597694
-0.12502065697119505
0.06275336396542376
0.3089322349484479
0.2952831327810776
0.3653341051931673
-0.09254761825151497
-0.34441068716004125
-0.1903950087768782
0.06209275950647087
0.01574037959092594
-0.09122685548641468
0.021910244830640656
0.16334709105064368
0.09053511665380745
-0.2880475800380481
-0.16659662914933726
0.10603457300209211
0.05515830419763288
0.15023381675723094
-0.02207396712114239
-0.2503280211977489
-0.4016231263682068
-0.27707320949889674
-0.0957448514185769
-0.03443726314642207
-0.012661818060533358
-0.056451972012411505
0.18136248527777538
-0.12301231642100374
-0.22928983389781205
-0.08363967162397623
0.2550548803257833
-0.04737456321970763
0.03206190858994311
0.0026838211831305644
0.008698766190436337
-0.010987370071180204
0.07310814177975358
-0.15177282061264616
-0.32344645717619214
-0.2862828980951229
-0.20453795290848173
0.0430895147966064
-0.012916755518123364
-0.04921411593343503
-0.009013625632961974
-0.26079622685495285
-0.06894988202605293
0.0008932068779673412
0.05300576138863551
0.395353322359854
-0.3225625119320203
-0.24118549578632567
0.07692899599313052
0.1444585603870372
0.09414966746166974
0.1410831087001451
0.11231796812511965
-0.17411091393479983
0.0654563020534079
0.39998588154166775
0.07452925639853562
0.3199690752852505
-0.008572201373547115
0.15301775302211726
-0.15462359717157353
-0.14465549057429936
-0.14102628048113217
-0.010322965275453165
-0.04940187214704635
-0.3530861143989528
-0.04992865879683674
0.3487500756896488
0.09871745454325707
0.030676738716155717
0.011299443942930278
-0.07273067781465924
0.1808195921454058
0.03882682208478089
-0.15909393733383845
0.13107312004702398
-0.2534565658535114
-0.15807078343965644
0.09007723516672554
0.03887309935478534
0.1651767299891429
0.1866140360491239
-0.2772951120473813
0.09892746377947566
0.05859039116094819
0.1718599391095771
0.02201645154535626
0.17786024131043526
-0.03152027494233771
-0.18724624122254738
-0.2755096819229284
0.01965603698057752
0.012785417906652467
0.10067952041008266
0.07438913381161952
-0.17184748775740638
0.07525450760680935
0.058740642093343044
0.25417453747611135
0.004200704370534125
-0.2888412998664714
0.04969536149238087
-0.17130002434794578
0.14563391111224855
0.08183539914997211
0.20553706380243572
0.12591865974360456
0.02972832284799557
-0.14411922965599563
0.08028385207410789
0.15584333533827072
0.21010048431471218
-0.037581952899815134
0.05186229794125517
-0.008542964104434725
-0.09636815086178378
-0.15437834790827634
-0.10061536916649055
0.2504787710232162
-0.012344744689815767
0.10618361923289321
0.3311134777048453
0.1324272504643476
0.10468380783770934
-0.060751182415293065
-0.10192376362122618
-0.4616207297675705
-0.06705906387614763
-0.16170821329591728
0.027558744539930558
-0.23721107416350887
-0.14063632572099716
0.056229200295075644
-0.035114441778431565
-0.34168060622031626
0.08991474419049147
0.10014976407721025
-0.18770950708210052
-0.10100838232541558
-0.2742516691236161
-0.14345318191607387
-0.13802119295441978
0.30709576536227506
0.13820666071082063
0.1706493636728104
0.1415763850494057
0.18846549071257887
-0.08228703071649231
-0.037501774485918224
-0.058679413373169856
-0.3063166670860566
-0.41768990082536117
-0.2345765376407839
-0.033738886803259226
-0.03765768146368583
-0.2901785631138526
-0.034450959739730974
-0.15813257893836702
-0.05156437248353611
-0.030908702960369395
0.10134257751093267
-0.2271779776514613
-0.0710051525086327
0.0966067120820673
-0.052287412449459086
0.1033397599927863
-0.112168482214739
0.2114502366588798
-0.2629242992806039
0.14279932608037396
-0.09054716667589728
0.10940902867444403
-0.14338375105066972
0.10107822558668278
0.012540867347870717
0.3332455360435734
-0.09544939803044608
-0.015947060910454648
0.23974572871222183
0.0074558640240632214
-0.010857685379295306
-0.07871179860487
0.17412564863589527
0.10781551607117856
-0.07048393731845326
0.18800376845630778
-0.025187072526096265
0.07410042920920351
0.08113348370128251
0.34941132427608423
0.18709333242467577
-0.28762670159139264
-0.07277514306721733
0.22590717356777848
-0.1511886503391387
0.17243554549644527
0.029555041129723077
-0.11445936958651183
-0.2800010355129886
-0.1215349220962675
0.1767367779376947
-0.08753500101280269
0.19019287767280696
0.004494178936719642
0.18700783375486146
0.1808134645550482
-0.16955488443491706
-0.23132818697047428
0.09433395521467712
0.06581510603122512
0.01603106539677298
-0.039654063101855146
0.035641660995896336
0.3561306120795041
-0.12673991168392093
-0.14618168596688488
0.1923220212947637
-0.06975221159363086
0.20449571252060267
0.11564291596032764
0.028589832369294244
-0.11865775322993626
-0.10950891099197597
0.0009919875447102074
-0.0071237772463596475
-0.46556524775278935
0.19489116551339344
0.015711228871057067
-0.22602984857390168
-0.09356470129056578
0.01380920370725147
-0.05454122432178724
-0.019674983223126257
-0.10777596791134751
0.019966203633370014
-0.07793000233451455
-0.0651328039556996
-0.26515367466033474
0.009103653683342356
0.15441672377546928
0.05408832526266536
-0.1960973224362004
0.02968628211663322
-0.10881313413827379
-0.15495813290899255
-0.048699082179008694
-0.22407325538382275
-0.10827022647909461
0.001729829198412318
-0.06977173878251627
0.040337008905968766
-0.2477427228889569
-0.05499703071679544
0.024459974857797148
0.11913500334765743
-0.05910251790087935
-0.3312694255579921
-0.09228421626736819
-0.0906875585704543
0.33644627334231075
-0.17504226115641383
0.09178731685155327
0.029296244164409527
0.296998919205582
0.050147763585646855
-0.04056584418824424
-0.1717392520455362
0.4459059619326582
0.03550527710081049
-0.2033187108257491
-0.1816288136073635
-0.0060352173732357295
-0.035639749076967195
-0.017877975785304714
0.19886161679047898
-0.24770884394943957
-1.3128343939376148
-0.14067536118762872
-0.10695301403470048
-0.049380742366606514
-0.35758218060499447
-0.34739126815227983
-0.06500024734593128
-0.20711130050584775
-0.32097354135708206
-0.06131735284801062
0.010729003073782693
-0.20896296427464575
-0.13755735741747704
-0.14305045650235057
-0.5349376148880572
-0.1582194479247397
0.010993296720612188
-0.18232834873983692
0.022729058249183393
0.033729887511258654
-0.8594400890354119
-0.1687701829946365
-0.348813907842427
-0.21383602939857332
0.2558055855122045
-0.5708203339419735
0.03545625764096726
-0.3068398701965782
-0.036541773590787655
-0.030017823889992683
-0.19001060592270042
-0.5290149863337066
-0.38810567335067364
-0.11116864893722476
-0.1269591076817456
-0.035085446834007106
-0.05760042280570091
0.3208887476599422
-0.17544424070580825
0.3455405812077803
0.1740372764142861
0.12091356357151681
-0.004099085054474898
0.02600295547148679
-0.4560989955493103
0.00262341097064622
0.03260072039314036
-0.39543925595321344
-0.31963546587806174
-0.07717197349679707
0.17327742657411574
-0.11040003448669648
-0.204960841874334
-0.29056442014506934
0.024434197405460004
0.26801607711045144
-0.3496914130716295
-0.04519089837730172
-0.013708716870578272
0.06357698293015342
-0.08826916984418853
0.12637523256813674
0.1048773446444623
0.10918400727560804
-0.3216990442204768
-0.17733678949493548
-0.2689589393029689
0.05280617739751636
-0.8875632744617873
-0.19602169034011593
-0.3432990425508222
-0.2253990529827768
-0.5670812692706673
-0.45996031914733604
-0.020007702062112536
0.12194971333099619
-0.13806530426900113
0.2957529570412004
-0.02638307536045044
0.336798635777684
0.14264931367783315
0.16070514976110298
-0.09032900941774084
-0.09747975967951036
-0.25770496345647526
0.1550653568137569
-0.054026109780285186
0.19959179107403935
-0.07399258390222914
-0.48453514741000037
-0.3711017835891701
-0.5481169857411796
-0.5608855484840192
-0.33744379013466913
-0.43002187341569154
0.18051503087781876
-0.3360039095803379
-0.28519614194816223
-0.18615209480352563
-0.1803179639537969
0.6264423485075108
-0.2816389604909797
0.23971984809834457
0.34400790465324815
0.4199470717371367
0.10355923850573448
0.047759713083014646
-0.027143415088220168
0.2374638976097756
0.2051589603298894
-0.3531723763069059
0.009168821307253393
0.21655773530414427
-0.1932442468594385
-0.1030576938161844
0.21395759207629217
0.05275618713919704
0.015811766704080805
-0.5288690728110582
-0.5415349735046271
-0.2289590531645279
-0.193621983648591
-0.5544092104934363
0.2911876409728549
-0.05806867713209254
0.6228421230960303
0.5266907014573413
0.20485512770743408
-0.15024340960044186
0.054203912572617814
0.26757529200155233
0.3657001643378028
0.3480282326577476
0.21021320451959832
0.10911173617417526
0.13978705027103094
-0.031226687637013188
0.3549051702596039
-0.06195104004586913
0.14678539342531483
-0.05181120682730593
-0.450910603085329
-0.34418239776576975
-0.4490406843713272
-0.4030574400576668
-0.5498034896113231
-0.9151903781647113
-0.2666576448111981
-0.34145991928295016
-0.017217367949264126
0.4607657870171266
0.402275215967833
0.7298683988418385
0.722379536193852
0.44101767843322653
0.2892153737361627
0.7233016928859176
0.7157224020839752
0.57277412736854
-0.0013363177048042437
0.1525293363741998
-0.0354106006170002
0.24976452401083973
-0.2364022225903709
-0.25248299212087805
0.08409184887175461
0.09247181302277568
-0.2984548313908665
-0.12481304051482503
-0.3725878543271389
-0.5218511964716641
-0.060559372372181335
-0.4778640706735878
-0.6375663201441674
-0.20309628247424555
-0.1387497702105713
0.26114951711142764
0.4022551297361574
0.5854755950475852
0.734525169136356
0.8027999304257499
0.6728825183062321
0.5323761421577462
0.21414812029674699
0.25417531597093607
-0.13047169457552307
0.0389322583422762
0.16516352474244844
0.21240274335963552
0.3768638630328625
0.0705194208707344
-0.16193568857241478
-0.19385851044826571
0.16661648688602743
-0.335439684178854
-0.4462866675430884
-0.2874843136283975
-0.20081238711544763
-0.24871332392157985
-0.40365418806616665
0.3598953602577325
0.09769658378616218
0.554801969858493
0.8369091809876069
0.7598074244343701
0.6449823986917268
0.8001854489743047
0.33715343704658096
0.745422364300075
0.3011990599308522
0.34428152480665875
0.6044872969814494
-0.08817989857273105
0.3698714427900047
0.17177482137739428
0.16216144027267282
0.29778202827794
0.0098766337438013
-0.2594861192838921
-0.12132227380647737
-0.44290105740160457
-0.6362935476626584
-0.11189920094452328
-0.3108871991220921
-0.31724749386052326
0.21858194752618176
-0.05025312858480916
0.8549140850628146
0.3245377047596235
0.6450558310977126
0.670564471481786
0.26123342400805727
0.41494751380761635
0.02329377043018236
0.48885985318335984
0.15186543085575058
0.3815052568663698
-0.022990134904925196
0.233902651356838
0.5786096688738507
0.604188717427947
0.2225261706324766
-0.07832298053527603
0.32329726120959534
-0.6016631198045892
-0.6607974678411562
-0.19628788028125158
-0.28552983847111796
-0.4769626212794207
0.00974508725861591
0.11996468801585293
0.20177267666915794
0.014893012071585256
0.09352912584118507
0.37552922629299257
-0.0006662699645341015
0.10687498450734956
-0.11742723291663337
-0.0897544117967524
0.502641874995357
-0.21579363076121474
0.5071059425050806
0.12380718224063098
0.3866131410847847
0.12944177238116758
0.23650311270618177
0.20906415177710738
0.5009943387355152
0.03851825720193876
-0.12122801656764746
-0.5182569530795489
-0.00579028577784426
-0.2787007301545168
-0.7800900629766131
-0.4962980814847593
-0.13994935282974252
0.2790539104838506
-0.1146306109021789
0.15535027776789326
-0.11608261587452354
-0.0236255408050063
0.20757383086349246
0.08065626308876667
-0.2900666852689085
-0.006216656694028571
-0.051669930554718295
0.045896537476324994
0.38753160942117393
0.47759246245071046
-0.009984086087126583
-0.05902737335817552
0.3012453942461098
0.11210420604907188
0.3497378637290345
-0.2752127040430802
-0.2913688227561592
0.1356710897985221
-0.05208084807441658
-0.603800556379675
-0.20530347041966876
-0.14396577080627457
-0.4713010803632719
-0.0032823900456238225
-0.4881416418065572
-0.20088225815692096
0.615605373668607
0.372632392183205
0.4251942859502437
0.03992126187674835
0.2046202053299825
0.2593837543929232
0.477582261746065
-0.09723448049273764
0.8627770421147497
0.3289588875275824
-0.15491321312387135
0.20559997496894117
0.3242083512451852
0.19158635173474786
-0.18245528054695992
-0.16694661012611428
0.07734397813323636
-0.5652528760674567
-0.7715036746732545
0.14553527433970992
-0.5050050814674691
-0.08717577144209174
-0.05344949790475668
-0.10818962046856881
-0.04832605112766766
-0.5484895793715133
-0.020402848305393347
-0.2403246011266646
-0.5778023719282758
0.24022032841929697
-0.2580317164699213
0.3350958544628429
-0.2299146114520343
0.36160594987212746
0.5910811727586137
0.44723983627461605
0.15799214682748575
0.16614780454773276
0.2294017336144394
-0.26728201111810873
-0.2755553821559314
-0.062136875788552856
-0.5078330645838033
-0.6316752359853622
0.2850087306551323
0.014273778447318967
-0.07565939481294984
-0.18869183981221457
0.4168327502178978
0.5440657003032562
0.3638336622514719
0.4121410953456889
-0.11145783133367991
-0.29755235705802296
-0.21599712929114664
0.2794637888698945
0.2132328752809301
0.4475582493403611
0.5159141789544346
-0.23617325773711864
0.46087815126534626
0.3244114668366365
0.11253183346159162
-0.13008234493640225
-0.007898936699204119
-0.2718563390528707
-0.06030285096155489
-0.5752021775904116
-0.31992191140909754
-0.10806533713681306
0.11931193133070264
0.06327079169053783
-0.23100006412744475
0.0015155097105907232
-0.4198197564055533
-0.04773026730116781
-0.2134851184270801
-0.12699143447387679
-0.4908583489165024
-0.30464817198830224
0.2610848656651614
0.10256209927961356
0.3468794295464154
0.03300671068228284
0.3832757388069054
0.6979169464668734
0.534053154335683
0.6644397615875883
0.28742920647780595
0.2946388651617553
0.057210838482602416
-0.06717066783211932
-0.055485288982165315
-0.23305235831727739
-0.43830865002661507
0.19537242610114167
0.22356224854758017
0.14233121883054606
0.42341654933453055
0.7853793847734032
0.14315960941097236
-0.14156006722837183
-0.20226516026882763
-0.3561052030654727
-0.12267637206143268
0.4110493485068836
0.13873033789113298
-0.05409626231656342
0.0666629734144645
0.9031511269161042
0.17254452999756742
0.3306109563150834
-0.006227306883896446
0.19203488754784145
0.09439914170370602
-0.10348242589121152
-0.3792383279869507
-0.2311208449440905
-0.7221477585247802
-0.19532754714154318
-0.330850308318649
0.21872549810391326
-0.1168663525252757
-0.08924062580567835
0.13212543089587006
-0.13996673176581462
-0.6611202748448625
-0.4512958842407011
-0.40690413712971196
0.09655052308880624
0.030245162525998775
0.2511012485618876
0.6163170437640829
0.13588137407673745
0.1828897330756793
0.38205298407885663
0.13063643896073937
0.2604279095544124
0.10074812732871935
0.4151204715306328
0.013055033565671219
-0.10015573987003137
-0.3677047436980695
-0.23103803502370032
-0.3830242750304119
-0.5692284735823984
-0.17356623160645326
-0.006866168909958513
0.03515997988977068
-0.36297635664153505
0.07585229676185426
-0.034248214037612176
-0.11587939193831912
0.025775607074020317
0.1734577109924345
-0.09506553528660913
0.07231758526250917
0.4161021515285645
0.6303901184151678
0.7511401476864215
0.5789290390124836
0.5001557437135017
0.18857126504649144
-0.03677148976518461
-0.24981500211954297
-0.5260500334595624
0.07516937560775044
-0.4449665871468344
-0.36058328501950165
-0.1628304149813339
-0.3454688868850607
-0.18080950117240477
0.1896834184808764
-0.033118674951799994
-0.04059932610727496
0.018816427652734998
-0.04377995002214745
-0.0010652771382362288
0.21886600084129224
-0.05961928392997279
-0.3076836114801076
0.12404904530188286
0.0109316091293412
0.2005708842662232
-0.2347120253848022
0.15803589682732438
0.3946817980185447
0.4571509848469513
0.12711210444713472
-0.057520349647649044
-0.04992436619338192
-0.7813168919145019
-0.5253184792746396
-0.1123330799228825
-0.7830523918389998
-0.31293385822147113
-0.2794794228103451
-0.42059825433409603
0.10969393699884815
-0.45337617101678873
0.0379007501183315
0.1793647442218741
-0.3645885662869609
0.24023856770234872
0.13537029571412904
-0.34174516788107
-0.19031497529782168
-0.09111568465380865
0.26249974674489773
-0.28339343734002154
0.3926736410354438
0.47241386037301486
0.2433626703703276
-0.1506590456951744
-0.2151137843354286
-0.14314563906286312
-0.6767122435601901
-0.7787775979835468
-0.11758074552213431
-0.40819447851867047
-0.5800750166451916
-0.4142932155808732
-0.24279342699344314
-0.4585834250465028
0.1547570000192334
0.4654687014284049
-0.10835768123978862
-0.15152302218067334
0.0968720029676392
-0.001175927386370033
0.3314392916869363
0.4969111905076287
0.47356093559409357
0.4174965221823138
0.12796768234256325
-0.18135129808893471
0.0749799164305741
0.00714137236207114
-0.30359568270633425
-0.7730120375144328
-0.5873288815009399
-0.8708118700762738
-0.49446118677313095
-0.26883487712410076
-0.07859237429517574
-0.35243970962518006
-0.37427743336152
0.5263281449026486
-0.028080585332106296
-0.33617250481667826
-0.41219547082120045
-0.3123767708210251
0.19033966376720768
-0.16914246134647837
-0.015258424723241504
-0.051091705729108844
0.17378074729680093
0.1788772348365871
-0.029432553661559585
-0.0282825409082382
0.21496495082597658
0.06833040061556751
-0.2828505431982693
-0.3988599326742437
-0.24813722528853066
-0.42459836421131714
-0.452274755377216
-0.09437848818915388
-0.10239989264293868
-0.21470791315179225
-0.24040453670607242
-0.40060921980771547
0.0656272166233923
0.13808679617931088
-0.32512582285035635
-0.2119899502184477
-0.28013745994471284
0.24974279511883438
0.5340604793120616
-0.043281109048110174
0.4078332635531105
0.06622329203186444
-0.028665537046537157
0.27024346664554627
0.23930842293259885
-0.3473898713488269
0.10046183041080901
-0.20125991380621444
-0.5511358319585382
-0.3455824658480967
-0.2746651941102164
0.06404640499794506
0.0412402337082187
-0.4130232017936983
-0.4629689396346216
0.4776421569640546
0.10130766232614871
0.09293557552854106
0.22216397135240698
-0.06732673326647513
0.28378536960510664
-0.002566674968585281
0.017860807269622827
0.12212468724607731
0.13950366621215443
0.3227565978022011
0.20645483645776494
0.027175975237748846
0.1012442467781054
0.348611520702276
-0.08003538398709727
-0.10203107785352405
0.07215757659157335
-0.3580391207899781
-0.42396384483156146
-0.5201769646042459
-0.12308183826955049
-0.26216691351036464
-0.3880042689789192
-0.015892696568920835
-0.7737167187683708
-0.469775459393848
-0.5418547079554009
-0.9671896173432998
-0.14640752191317702
-0.3969213187660228
-0.5111991283991634
-0.0264823848377426
-0.34011112770919
-0.1339594576986527
-0.34827161583182487
-0.067464952024108
-0.3528546268578314
-0.3010064546419642
-0.5662054774602389
-0.09291615258043831
-0.10806593203081094
-0.6799301122728837
-0.42525634824451497
-0.23810870671366163
-0.057657066928019654
-0.3235281299386063
0.09971125632916851
-0.28314653423621733
-0.014198561378576568
-0.3707961097897002
-0.0036668621337006806
-0.4885421386201662
-0.3465103985665952
-0.32745141958166785
-0.26466027670187436
-0.2666573374178134
-0.47530249916679285
0.03908410976016561
-0.18776326076553848
-0.36620833732149516
-0.21744481859920153
-0.10916778134756655
-0.22624531466786726
0.08006314154470544
-0.23428433577184468
0.1437909879953948
-0.1705602661648347
-0.3245294482923705
-0.3549665267274325
-0.07533992143881664
0.136189922794805
-0.030435559670697
-0.17530223993079766
-0.21859470163324643
-0.21074943832613632
-0.4235966004277118
-0.2987261549177591
-0.2796089322167897
-0.10836413483009354
-0.44846429732922605
-0.5114288848805822
-0.24960022617695815
0.008048267739309238
-0.23138851193807836
-0.1803679495946643
-0.031292430752463046
-0.25705051418322344
0.022441216240716343
-0.18558173070823403
-0.6784327786439077
-0.09455320489121975
0.12954750479321248
0.11869840381423041
0.0062316501018785005
0.18571479810210945
0.2030851508474022
-0.14826446334320767
0.19240799814320797
-0.19937023420251793
-0.36888355045458465
0.043775677417038604
0.029075725547671225
-0.23435620900038343
-0.31240663460287105
-0.2882015785983483
-0.22705704749906158
0.0015869052024564897
-0.4849071410858546
-0.2011301857142961
0.157715707044959
-0.1658564198800067
0.09218708239605661
-0.20752005372906837
0.17540746152792347
0.06690657229271922
0.2629320813644031
-0.33858414011335836
0.166145245713111
0.3149322426841177
0.017173789916298587
0.2040556078088667
-0.17553243533002758
-0.29560736529402315
-0.14860179533064416
-0.26301235814442175
-0.14816376315768395
0.10978354558309553
0.2189695421454764
0.16284070545269275
-0.38974320554751546
0.022282755021842023
0.18029629931533298
-0.5301516062146916
-0.17263783377888328
-0.1728942569243614
0.027511238194940585
-0.06137019156597634
-0.14382196843200795
-0.04301014378962394
-0.09161628635766501
-0.18314644400675248
-0.08848646937603405
0.14363467675415248
0.14179704073598814
0.11832587389978941
0.11075367611265664
0.07131466731471922
0.3074120611043132
0.5247366256082541
-0.493694815190293
-0.31384099103686514
-0.308968286917212
-0.01009095895720424
-0.13967061033357644
-0.40392622873208917
-0.147291024903753
-0.3185839317160193
-0.18146576120433955
-0.2809885253200057
-0.0601159098468455
-0.3026004426793756
-0.47159695789526096
0.2063181824865627
-0.25350085097678604
0.08646882283919365
-0.09303025699614743
0.1861726910328418
0.4665165727759981
-0.06896028094224621
-0.11212849429994769
0.3215045225095897
0.09739660653008174
0.3350595314398418
-0.060976941742167355
-0.5377036106791888
-0.1173579379500493
-0.12082384955398312
0.2459732771508825
-0.18779055752013998
-0.39646602790992547
-0.40523156763051815
-0.40185679432805443
-0.04927510789036683
0.03727950760916209
-0.1680820944328554
-0.2001059618644
0.006562237211963813
0.17036925533399577
-0.1844274629952203
-0.34008798837581744
0.3281688092464219
-0.13203934276722817
0.2191741202618959
0.30958475919117545
0.24780440129641046
-0.06975897404469444
-0.2709796549490591
0.22560142235459377
0.07923955625770521
0.10546392068482834
-0.043971371087051875
-0.1288627467335494
-0.39667476258706574
-0.016323187714011825
-0.1883796772604171
-0.5166641408994705
-0.0671263486458185
-0.18060794628155757
-0.020489638668534167
0.2107249040991879
0.13467472336192574
-0.2589039298173142
0.23547891287706815
-0.00032486208224393067
-0.11044568514895269
0.2251858867606169
0.31375079590875893
-0.015982423501728123
-0.04226660823586499
-0.005731880642892452
-0.05853294560010129
0.12195573329749654
-0.3168768385727004
0.3137552417617578
0.10593692959210549
-0.041154585312657484
-0.33027021395038475
-0.15972635995741008
-0.26121056037546175
-0.2784221317951129
-0.038702879154257616
0.10038888306541963
-0.45557443899930966
0.1811989849736655
-0.08886633533428923
0.26075346338450234
0.13609580513297356
-0.20176047595785632
0.3401471303280767
-0.023396206944609543
-0.15001875756953204
-0.3370233128727491
-0.04786367249340349
0.2544136175180613
0.17405632117735625
-0.09790077650671311
0.11285923373692025
-0.10131089231739404
-0.10225981756081896
0.11235945967379918
-0.27369859564055293
-0.2996902616638843
-0.27536199740708545
-0.08480881778114577
-0.2132717787533689
-0.12310104894631518
0.29315294837961436
-0.18843714093938857
0.058899283734600856
-0.4915619612606905
-0.1806556136623886
-0.16847460140592044
0.15483500898544114
0.06808960206814087
0.0055064507830060085
0.05926247099953761
0.06067408047736802
-0.2510690480464011
-0.00013231340626200804
-0.1721043317534719
-0.16257954476245326
0.009721619498568012
-0.17690390760423724
-0.03841734842189191
-0.29730016423833894
-0.257644807733498
-0.24000698462101133
-0.3043700333205216
-0.05000212908534524
0.14570397464246806
0.07437822338476753
-0.18315413943721423
-0.12426206042771075
-0.1160140722091379
-0.09309817055162443
0.11967849874896454
-0.3712586788737878
0.27951088739164925
0.21577862775539333
0.22182647310263223
0.059364639438578004
-0.009803404890034801
-0.06473968437556067
-0.12481012778036647
-0.40533214643875287
0.8358940209885194
-0.025927309050075027
0.1166440854088727
-0.09427098236318414
-0.41197814791770004
0.3630109527788668
0.24362304669698062
-0.29415360518841904
0.1960893601901274
-0.26975466823352173
-0.06638502846713243
-0.06781890598730109
-0.35703290804477555
0.2004962758911748
-0.028670762705867173
0.14356468250714868
0.030526014336039457
0.21664286995931353
0.2532996274371407
-0.05278230253565799
0.05391460467059342
-0.21601985003823646
0.1841019377359365
0.4533848562832398
-0.21058606572209548
-0.020988646720546584
0.19926662146116397
-0.2084930449022523
-0.19455280035222064
-0.019810428118353877
0.12079672402525432
0.006219752556345957
-0.1132697961911345
-0.20228389840058217
0.04949209811088337
-0.01652101449377674
-0.07312070343763671
-0.09444332997610964
-0.02300079500941469
0.010809017782475385
0.24988617673004881
0.17731702164741506
0.0019731846372223103
0.019511549361582555
0.3083658761413006
-0.07532789925178317
-0.13202106861767526
0.1588699550346774
0.3398356444624315
0.217243715116396
0.1813967119503567
-0.02861433586211084
-0.16873943969797295
0.25534584607537025
0.12758571771360286
-0.22734938554308304
-0.12892317822569074
0.07663444704984507
0.24858524793373382
-0.4302280648740976
0.4435204676079771
0.14130943935428425
-0.5932624299924796
-0.34513379585924636
0.2951501923830921
0.28289984151685527
0.05679266540360756
0.32004761504035756
0.2976051399826658
0.05805148347341604
0.36560819354095103
0.11023429776806334
0.12869310476593912
-0.2961498526541314
0.23753813980215915
0.03599710600388307
0.43380438766033735
-0.05798427486908131
0.057202069494936385
0.16751672500143067
-0.06285447944830236
0.19800871206430556
0.3056144718916994
0.16799935084879758
-0.2801132103586961
-0.18218986668590387
-0.06249477717593371
0.36575541155493535
-0.14542168511105735
0.07197892633930968
0.30176758142853155
0.012334510742815259
0.0638015074660705
-0.22381736699910046
0.13163921994509295
-0.16368492445972505
-0.038609169117122526
0.08643810953505707
-0.06937253682694335
-0.39993119776884495
-0.06082067040212895
-0.18034438049789528
-0.03711625000914101
0.3792211096007301
-0.24635360793944097
0.0846281334460806
0.08948437799883854
0.2670150638776478
0.1055883846046394
0.07902046610246213
-0.1829886391706148
-0.2651064144335712
0.2011206406330914
0.19085945909129573
-0.06424082360701874
-0.009635263418464608
0.17125897850891664
-0.1359699886896641
-0.34209432844362186
-0.15550713010811648
0.005395007765545165
-0.1530641373534854
-0.1702942297384267
0.08692488850026524
-0.023276694807949645
-0.03737991971694056
-0.25914081133451117
0.17306778017723373
0.29259541725764115
0.04350730477480682
-0.029090225123246105
0.0066273705205679
-0.07545960572203579
0.24672419466466766
0.05481350229149469
0.22728873692794896
0.11423406802814502
-0.06993863372184693
-0.14544485236680596
0.04586936246773274
0.32704335835265935
0.12933575294775168
0.2370014717558108
0.22740657042000828
-0.4121083141448185
-0.11710336159471837
0.18413279984294648
-0.19967383219785462
-0.4375510956751889
-0.09025587568009841
0.013562823552315898
-0.18097942849053567
0.22794276975827588
0.16492598909835135
-0.09707307883524158
0.23481936171960066
-0.10640539991316393
0.08202974320729031
0.12355219332666696
0.40928230472210736
0.20712438614032863
-0.11478843502430033
-0.11801252961639111
0.040987857870409324
0.17435342235456858
-0.0667461916492978
0.15794990928683023
-0.010788612772090606
0.18915715783597858
-0.07892697161425576
-0.08640293452986193
0.17620421006349107
0.03648718970528625
-0.07835940375628042
-0.30961703789707506
-0.09142681680438244
0.15997192275939315
0.31760266243096646
0.08440025899918296
0.052172291340565995
-0.0735065359893358
0.08282206470795236
-0.04918611221312034
-0.004258787642127761
-0.03140006297922614
-0.1272127513429564
-0.10812236339857002
-0.2428843942243454
-0.24672726414822882
-0.037102652624482355
0.26774003087185466
0.8151107175984739
0.09659249457214387
0.24872523324895654
-0.3170303910907202
0.002044353811860022
-0.18922030413256294
-0.13369588526782686
-0.19406155353495705
-0.09302436577378881
-0.023551572871195862
0.03750400866133666
0.013813427382859261
-0.16191154348025258
0.2951278077253718
-0.2834997267865772
0.10469915079961344
-0.35646201959107887
-0.05144183616984117
-0.19844411187995054
0.13466072385495395
-0.056023281855093754
-0.1677843667508209
0.04859292082451929
-0.32362791041594
0.1550959068062715
0.22905150421988724
-0.22196114320621108
-0.030220013016148413
0.12334915137919795
0.12711610858096478
-0.09966945985571081
-0.11205508130633382
-0.021286654430550986
-0.09668029865988632
-0.2179521009684303
-0.057027342306346686
-0.4669361396399434
0.0032558710898452727
-0.04604353683361772
0.08902032414620722
0.058992202777405786
0.0759747362403421
-0.2095115923371313
0.2254783296440741
-0.08784863830878584
0.013576721707851503
0.010197503745406686
-0.0373323890926952
0.10586774853378263
0.13744572099307026
0.016929647990711585
-0.10926575051830464
-0.08682694142650167
0.09882173887433379
0.0955177323810356
0.07568905441095942
-0.11863818356187746
0.19875273445130615
0.08596446897468016
-0.17149489858668074
-0.03049436582742512
0.018847200339724188
-0.04326234820421177
-0.17450153674683064
-0.03310427380521077
0.026825596692949823
0.013551434242856417
0.2349758739398125
-0.2862831676704779
-0.08087055927896285
0.022536621340725448
0.2184328686252398
-0.2902156999994663
-0.25560898555520356
0.22556184093003737
0.2550614298802763
-0.2496425359340915
0.1330156716416636
0.023742520752084138
-0.20544743117728315
0.28000036994390143
-0.08783358531621718
0.06459808817157765
-0.38624475740440084
-0.0708817787460422
-0.13047732864289463
-0.08079567517751035
-0.16265336624551302
0.11233598958211793
-0.05423849836319519
-0.21005034264937325
0.0370977381420719
0.22278187906098762
0.11845966371791675
-0.026423555407643684
-0.19587422426131906
-0.03806446043826514
0.03089772860526146
-0.026413182856646778
-0.14008326038787272
0.06687001268418698
-0.15256982366625652
-0.08617125377622442
0.03435983593957128
0.04357996413482172
-0.19560263952059317
0.08706479944262623
-0.10809254235687646
0.282839352609928
0.05443724776419763
0.0052480601083210576
-0.10174498022750848
-0.03389616510888375
-0.2222366269137485
-0.03160072058879129
-0.08077084975068229
-0.1303481180161815
0.25525101169784703
-0.08495536806218991
-0.13783184471195248
0.013749917058333373
0.15217039409477037
0.06424872144544226
0.014172011855801477
-0.12400529860387814
0.0491689334436035
-0.005218995330474972
-0.2930619122411977
-0.12277832726642951
-0.19296640111341573
0.08740412412142382
-0.08507136200836503
0.11279154192403108
-0.16274820982863145
-0.22746338078731812
-0.24009740814680733
0.002049311096702769
-0.20340650097879281
-0.23186903429749828
-0.0527330424883053
-0.035544968536321775
-0.13832026907324677
-0.31159130991899275
0.465748039066719
-0.02317010810637202
-0.26810561983581865
0.3394986468334308
-0.04652273136363058
0.06880716738938474
0.2969762566885737
0.22400219907560243
-0.29466418022063934
0.2767848220500657
0.1835841559976302
-0.10061984619522317
0.2150613334340977
-0.02966277751995646
-0.10563868205924538
0.06929927792326411
-0.009810687651640646
-0.22019610753183497
-0.20482450993295984
-0.27036558368072044
-0.6793171103810478
-0.2571007052984714
-0.13319087194732745
0.06306480515575483
0.14951044277265205
-0.07828787011201649
-0.19063490787769083
-0.16975146572161737
-0.27195230327566605
-0.19522712823904392
-0.1998598117325273
0.06384578425630204
-0.1947357712625109
-0.2959747550107648
0.04326562321719362
-0.14943741550551215
0.10251643123873402
-0.03990654192261134
0.33616346450635215
0.4032958531474653
-0.16287274366650592
-0.30741630321209557
-0.1962227237563573
-0.11258586220671901
-0.30357838313466445
-0.40155307314533223
-0.23655991017382516
0.05955767479268716
-0.1527047339200069
0.20996683160865035
0.04538376370373958
-0.5286041866781803
-0.01726847759612926
-0.1268284443818975
-0.06643059023584083
0.19450518448695783
-0.16619697615084195
0.37519466952543307
0.41714605905507207
0.06736168373308099
0.08177999102744292
0.3964777704323983
-0.09941170016368073
-0.3621462831071022
-0.14008924571339332
0.21082139673690312
-0.5208745647250873
-0.1227981009047042
-0.3044607924604268
-0.47277098039382176
0.0913530738195539
-0.009219843696264935
0.09276779796426014
-0.40004478257917236
-0.1874717124972129
0.2725631698675698
0.056185326646616476
0.28363933949426656
-0.2096939746034326
-0.00550306430387043
0.10127727136471311
-0.07711894328459554
0.20347957766891298
-0.0001856240610966347
0.3159043832233567
0.018928999826034878
-0.13936430906590047
-0.03930828246686461
-0.16846603398820498
-0.3629265466523177
-0.11389737088427487
0.08423594813370643
-0.05824891294421169
-0.09902582269737596
-0.23430143093572578
0.009365840179682231
-0.1901901653311196
-0.4710831105979882
-0.08935902462377153
0.13249667468394669
0.11356187782697741
-0.0059280749365568895
0.08174471887609384
0.0014940174823273073
0.48070356380214824
0.34355608450002467
-0.4378124769764399
0.07008885231123468
0.09433531512081982
-0.2958417788958502
0.22700783241909095
-0.00026468410652716925
-0.6835256567404044
-0.3459042410417651
-0.3069169143551906
0.0536434290126224
-0.2730278093365599
-0.4138958057651373
-0.05081910612894576
-0.2224523199024676
-0.1534551170324876
-0.4379405750940781
-0.11730852539570821
-0.057940297567433574
0.38312317264874973
-0.30789671772891497
-0.08437400900456381
0.008404123584680859
0.11522067116584182
0.01036689395654614
0.2036566801894096
-0.1370222601729085
0.08498338500289
0.5597119126776557
-0.21702327616769776
-0.21153172422519279
-0.16765410737408087
-0.26833753126809556
-0.45923165661536813
-0.30638413516167434
-0.2638471121053735
0.02471746395683477
-0.6295790640896448
0.01766443734790516
-0.1870670476283835
-0.035841962863589635
0.04157593486187784
0.048427911176666526
-0.045533925323426566
0.015758368458329144
0.2498496793238146
-0.22938235506650334
-0.033621789153183985
0.3154631583162234
0.18573441754242376
0.38646763579475674
0.20984057580170543
-0.048319196706363
0.6518759611336729
0.06557361705058737
0.009663975455410508
-0.11955549397309023
-0.17028168056386736
-0.23381749954432673
-0.33491667203442055
-0.29918869957363375
-0.6696955775842454
-0.2649578363883507
-0.1726437173242131
0.21252527494676055
-0.18924144957775732
0.27667967401587085
-0.12034059156751067
-0.09283827060257613
-0.18797068995812727
-0.004896730677663059
-0.26398043345490074
0.37959449088382413
0.17754349454882123
0.5965248937849255
0.4037141929898882
0.2797295530888732
-0.1863674320489449
0.3293623643670865
0.30594845903344364
-0.027856299678448434
-0.3975517483237873
-0.5561457958568314
-0.568965286008322
0.06882623600093923
-0.28038681628539874
-0.0958647986193146
-0.17675548760323687
-0.18815567798396435
-0.017536497774444274
-0.09107307927058719
-0.13279569149130924
0.03968536726747311
0.11919186507377509
0.052303714937606736
0.06426561250082617
0.21301184632515807
-0.03350445429653635
0.22748138444396887
-0.3389924841219981
0.09341783586528736
-0.14271936652594183
-0.1686056477721834
0.33805788047356217
-0.25311198584700767
-0.39508944738399165
-0.13901971229046314
-0.1666571844476053
-0.3246003333661712
-0.3099154838870956
-0.06345302759691848
-0.14311307700270726
0.17361428224677816
-0.10580451242516714
-0.18157094693687717
-0.15027699360902794
0.08661639679484041
0.3212692681149032
0.1108746756985357
-0.11120860052289797
-0.143764264153813
0.017979726404772325
-0.09470662646940595
-0.26117268089441276
-0.17822772706407114
0.056540281285956416
0.2412598369363856
-0.28142796325794606
0.03999451332180724
-0.2665899949004891
-0.11468831125242405
-0.2177980663857644
-0.021684556135024395
-0.012593755554650254
-0.3067255282291323
-0.46716882695394696
0.05650464541722367
0.09968987547032142
0.1432986395676689
-0.2631946356398235
0.4022184865291317
0.3605483585366339
0.1988809142234036
-0.5720740644889002
-0.08636363742648914
-0.2974571075746012
-0.5849880429491772
-0.6214555948792825
-0.1222533584195393
-0.5730967963603729
-0.22094858286019906
0.08527943386755739
-0.5177060482440399
-0.38530624590067686
-0.41617070591501465
-0.34727495033273226
-0.12133467211552386
-0.28136825576026087
-0.2701171884409389
0.004216207299028939
-0.02055565438458748
-0.2524544641851435
0.3942087361882619
0.08710211904266772
0.09852485399575223
-0.02825481779403947
-0.31577512387802253
-0.5986161484009502
-0.2391970171835255
0.11403234708539282
-0.2147465871110727
-0.2035214962413474
-0.33270250239969323
0.0999196527242389
-0.12832266489005925
-0.19950666805497502
-0.6465416600469965
0.030310782637312676
-0.4345859327510933
-0.4091631153689396
-0.597654344287948
-0.4688448339149036
-0.3199687485997081
-0.4495572539651588
-0.1418175473626902
-0.04215895728524261
-0.06515459138871083
0.1294222213184364
-0.35292276299323544
-0.07929210147737094
0.0922450687276976
-0.016740201108451126
-0.08769538029257214
0.057280291030439294
0.06841947718037351
0.0964755622227819
0.1950135479625781
-0.2718461700724094
-0.44889825276879686
-0.3604805451718594
0.07982750049354721
-0.023880467790296463
-0.046260625298141934
-0.45713838096027015
-0.2939662486208043
-0.5732706170717914
-0.5347154848020073
-0.5506533132128374
0.07498912872191152
-0.08023431343173998
0.08519594783266685
0.13268274635474497
0.055684366185734836
0.24841527275915382
0.1000874424245508
-0.10435248740968896
0.04999458796982724
-0.3457642078426195
0.28497586797262847
0.12581928516956056
-0.04035974691381706
-0.11946173405956421
0.0015871649826630359
-0.46723981842077666
0.07483617132229309
-0.11542790109649058
-0.006789122778671942
-0.1097367077548447
-0.3877965828578142
-0.1537945832688528
-0.46375829464026685
-0.41079958935475447
-0.1394030696781371
-0.06525723935950424
-0.2741460006665261
0.0649979990057516
-0.2277125342305866
-0.010544048801921568
-0.158196365365102
-0.2860914639332626
0.15740773658771015
0.15464633709848163
0.21408795191901697
-0.3216077913485002
-0.04477773011968774
-0.128667665183828
-0.2251991716131531
-0.3907064803128202
-0.4760967928448543
-0.347156612501657
-0.22876637228476496
0.3224859329368763
-0.20455300807323568
-0.21772464147690254
0.13425034040628225
-0.004712424175420281
-0.27843236923342557
-0.11268319780328254
0.017525357495606325
-0.09207654583313563
-0.030370311127002943
0.38555314024592435
0.06636265108010857
-0.21771544313374896
-0.0177518686156096
0.2997053476171404
-0.07335371203561443
-0.11851033926976544
0.19512161511892243
0.08489590338686995
-0.27934770936397785
0.03819461944759514
0.21264035320099856
-0.05821329481408378
-0.416506059849359
-0.28525392782337283
-0.3457147864706144
-0.2664591895590263
0.09590935303831805
-0.38043290888013365
-0.16469586155752672
-0.26301030876857523
-0.10267387189237631
-0.2320022637438728
-0.07898178242869086
-0.24358932888314636
-0.21388016541841084
0.25839264687648017
-0.07554849307201018
-0.4180136843336989
0.31483000893366725
0.3347327035694412
-0.273132095096453
0.11860820341026548
0.045579932936509054
-0.13808267201366395
-0.224107456146361
0.01827803979160741
-0.792501384158499
-0.15438028534404985
-0.25841908836641597
-0.6100154282081539
-0.08140899007584121
-0.10274368064515735
-0.18957288090335428
0.08325344068763889
-0.15750778470284377
0.08313760875482669
-0.032604360609767784
0.01807163871844587
-0.00158931529433749
-0.3623585903434074
0.2507206922978727
0.25419016623052454
0.0032716060564615423
0.43149378458088006
0.27541181587812835
0.11287613204924238
0.11741892179639796
0.2678933053336072
-0.4764080575901766
-0.2971370924226272
-0.16546110505167275
0.05422840885623346
-0.4875261717083672
0.08233788287818915
-0.059993555018909316
0.011220623073448411
-0.3587431542641134
0.18928253097982053
0.07168474092558834
-0.09557907714566172
0.1775318202402285
-0.06091509056448472
0.050379641494708166
-0.24045792432317195
-0.010190367845938337
0.28279285240494223
-0.2340334938070049
0.14280421788483824
-0.1752271865560184
-0.030903473242085762
0.01446994029620416
0.14618997560258737
0.039532928053516485
0.05813576228165469
-0.1480613496013983
-0.3949410948494296
-0.16066398683612718
-0.23618097474940775
0.06150064983913149
-0.36288205822607494
-0.18114639669814964
0.10168837482556682
-0.47862511224580834
-0.032491957212549286
-0.36033017516483207
0.1245533287724331
0.09829277234919603
0.3735951877334986
0.296912921787752
0.02076265390902387
0.022998694597460977
0.006405656910018749
-0.07793889292909273
-0.4261139250242848
0.005902932525037263
-0.20736940679029717
0.2874102291942004
-0.04511915109952294
-0.09061208185039513
-0.4718897224389257
-0.11500615159951072
-0.06979785224966338
0.05968183726058256
-4.393716783390703e-05
-0.16734934468586013
0.10073562354885301
-0.2287473365636004
0.3886330661528048
-0.0188479051502245
0.3892644937800352
0.21087252996686867
0.06426362725292399
0.20726958686261
-0.20795379314272844
0.4022735267142888
0.006260562347522695
0.23838192427548122
-0.29281195649373737
-0.20879230979408825
-0.24579100617126276
-0.30070360503324756
0.2451443170568583
0.1965147991909034
0.20518054635242353
-0.1380342680963859
-0.1919840165152817
-0.06071890990259905
-0.08300153982453545
-0.10878563817422963
0.3064295169636735
0.010124150447739122
0.07311564481377494
-0.0673546011204624
-0.11285875769574857
0.047307868947796206
0.12945955024540418
0.03277142216078216
0.2431861831191115
0.10563460167514649
-0.05193077851420221
-0.48748003897693776
-0.4442229747539719
-0.20742982008433453
-0.24401781762131564
-0.06961624768697885
0.04743841233633525
0.6470913698910914
-0.11681187007216545
0.13141205978404857
-0.05862132203792329
-0.2255119015008321
-0.024514213937859554
-0.36507501749055965
-0.14792548145797899
-0.16286179214346286
0.1699903311028299
0.16867557566507013
-0.335707665320861
0.08068389497570687
0.11884842392684301
0.3684854775611593
0.5283262790273137
0.15039643733261868
0.07221428728182613
-0.39697966437446314
0.12023134846927461
0.10900534155748813
-0.36830219446434403
-0.07398355146921251
-0.3697652672877917
-0.07881385717144727
0.14719625735543826
0.014484071845047448
0.0565884397939739
0.46931323201150027
0.22047511404585188
0.2492286616369189
0.26751727362436306
0.11997719218746881
0.021374080105551543
-0.407833097942996
0.017422858000803815
-0.013111196257134486
-0.02021621635109339
0.1560957326531064
-0.2144396050436842
-0.05717029335716158
0.00039208970652797196
-0.017994029821236466
0.09315548378989334
-0.39504686584927684
0.06636834404180555
0.14710569210353658
-0.005959985281474238
-0.014934633951295385
0.2867185547224577
0.02519670137958993
0.014449489781342376
0.1306936997464083
-0.6747590411500021
0.0824565121985282
-0.37080809276418186
-0.2189043029738158
-0.3282683198393749
0.06989373291395129
0.30083129045365264
-0.28622937126062786
-0.20493767111297914
-0.04401826678780128
0.2594217888177464
0.08605939985411924
-0.11230432563107287
0.062302793817449235
0.017842301346865454
0.001736438656039154
0.15184011172316778
0.1952311665492896
-0.3168643848838973
0.07839345283309167
-0.07187249280969053
-0.1524157406225432
0.05209565003311904
-0.16953767858899393
-0.07277109526624365
0.06501122346925586
0.25430374227677954
-0.0010225713913489716
0.07571611781589976
0.17654991694329109
-0.5119974132462435
-0.0846484782030547
-0.22809538444150423
0.1159152745497705
-0.09309686216550274
-0.11854577567813211
0.34029730996718405
0.15093322698387437
0.09930964891456354
-0.026319356850028397
0.13706266183701507
0.040210505223389606
-0.5972423801873908
-0.07361181442855237
0.44602831617787037
0.35149512399463073
-0.020394960235895154
-0.06804193821686616
-0.17183589748456468
0.2787035239463398
0.0023885770529135965
-0.059068732113599975
0.28561338355152344
0.13303098552971493
0.25859810888976814
0.2522256658330852
0.03440975364106206
0.10770931212170472
0.18671828945328972
-0.3708333540326129
-0.04787368241027504
0.03543821108947335
0.1902091384436684
-0.0524256576922032
-0.2487433491020162
-0.28116441856047775
-0.009912115933094304
0.260082131282688
-0.31701870069126
-0.06086742231951273
0.12746689673415654
-0.19862393711808468
0.12995253132658272
0.285308243172744
-0.12006117130627812
0.09419443300472335
0.23549607894028038
0.21029025734178947
-0.14004070927987597
-0.0649669736179584
0.03379195583298605
0.13416304792855657
0.397764441500815
0.1434801702063086
0.21721878366753591
-0.009250708517447187
0.06940691271834748
-0.2915384291111187
-0.1976656429134053
-0.33139644104211474
0.1611608215995365
-0.018706188555589073
0.2398223822740612
0.5141643613069762
-0.029844676471091493
0.08181154920822233
0.05060576246836068
0.2477564019829153
0.07998998160950214
0.06846781388744681
-0.08744789879345125
0.15409445600013325
0.22298923771711726
0.07578653541387967
0.1425284461069735
0.03911269231867329
0.0892478724459293
-0.3274810279047085
-0.5120713674028801
-0.2299438580557563
0.396218051955074
-0.05775115360164268
-0.05106907032499934
0.15517012910830935
-0.16376045828062474
-0.020275512455936524
0.1078967167677432
0.3377399283891675
0.17638561802745253
0.1632584707187481
-0.04108578433297734
0.019032734023645612
0.33780534799608114
-0.13696379330362557
-0.004009810248523647
-0.25084413743071077
-0.11977619245273126
0.13727032372424958
0.29532240548070077
-0.3517546813656373
-0.2487654884342181
0.03239609412575768
-0.252410678045742
0.30482707345050336
0.29413276232051877
-0.11120268381045405
-0.160466050369271
-0.10401082664712942
0.3797199893477326
-0.2984519741559877
-0.03434779357975812
0.16221707646038563
0.060839744177253456
0.013191440202826537
0.2734641602011929
-0.18826315346031242
0.23472732696312018
0.013948730709323919
-0.18647842901147516
0.3756703588870003
-0.15972159338705075
-0.0410514740906849
-0.08732480265136013
-0.021553978973921355
-0.0020077219374831767
-0.0030833904560782586
-0.410333137556741
0.33200464801017027
-0.378720311736423
-0.07570218160036449
-0.1331873013190378
0.050165713532703445
-0.3205138963176194
-0.06189926580659169
-0.09632390396126224
0.21995712592956615
-0.029324112313049298
-0.11951837546726794
-0.11574581164748927
-0.041900220483980066
0.14604603284356069
0.48735585488260064
0.30289868035400386
0.0413343252949851
0.04127480734676934
-0.40052518696498196
-0.030675658837268204
-0.13378880810340998
-0.15085696512337263
-0.043425612983443614
-0.18224783749768228
-0.04526289526454337
-0.03735295058266967
0.021126878828002713
-0.12593511102067534
-0.16089264885233065
-0.023886957115260878
0.07634988797279936
-0.31429075687058877
-0.08831983284718682
0.2889480904788531
-0.23564012595840114
-0.07032124348925584
-0.37731102836434116
0.1908467922082222
-0.2117944967950123
0.3112328171063899
-0.1243293239180007
0.019995252828840033
-0.04729967492471651
0.13146838021210408
-0.04022700776652612
-0.2769769197777077
-0.12041756509625307
-0.09881232443003152
0.03342532922734071
-0.189465187279729
-0.33193774434337886
-0.2978951915274315
0.0285519264632996
0.23593740947476513
-0.16852553562762204
-0.1423204768274971
-0.24133790762291252
-0.12662207805132655
-0.28062995488328685
-0.1432940782880634
0.014378458302188124
-0.295010870880658
-0.12371120402004504
0.3758451260771542
0.25715670900461535
-0.10917288858515167
0.0699947622963288
-0.26384754222516843
0.12231162736394144
-0.02364945498514898
-0.002772658846746911
-0.20151003891367206
0.20263112488935708
0.21562850832741298
-0.20152692197067196
-0.1487395130763603
-0.19612619219855745
-0.08257686686313818
-0.1997847318605706
-0.158456887711233
-0.4525212246054232
-0.10188478693089732
-0.2593757258962947
0.009751207782799583
-0.27421611379463445
0.1745721443668372
-0.12496685015399489
0.08026159828328192
0.13507373589844848
0.022063525835959812
-0.037677300082992915
0.44175277449935973
0.20376203342412755
0.17685503486114457
-0.1024356889694219
-0.04167620025128392
0.00581566645389192
-0.18695527639976608
0.10810212928287499
-0.09845557994037789
0.048703429435945016
0.0833147597858317
-0.08972497720337243
0.016698318391793872
0.36507186891519855
-0.11662526516285757
-0.019918848492221572
0.2282866736086936
0.16704050015842853
-0.5548815417316934
0.017524074878872222
-0.28284937562411405
-0.006286572712229328
0.09465529755716853
0.42462392126871457
0.35163596133973757
0.2203567481302045
0.31379732042268793
-0.43818311779322117
-0.09099114973163666
0.3747567979833012
-0.15918055580643775
0.14702028508367482
0.023218636134331446
-0.16342366312198942
0.1790184774100256
-0.0033792190537602343
-0.0008469681043756811
0.23276037159318308
-0.0011994361393045249
-0.04709897904947512
0.14267852445687088
0.030042048103191953
-0.015602458342378228
-0.20586000077145405
-0.021413867337790552
-0.03028338092235219
0.3778886846321844
-0.09976465431316625
0.07033315482566561
0.25144748356051655
0.1710988050263251
0.19514170831167355
0.3223791124680572
-0.13298153200909718
0.07229159894149435
0.2666137439717727
0.14470802217494566
0.10672387132774638
-0.03403280927314504
-0.029729448742812043
-0.12928442307266552
-0.17526234099297996
-0.15420282809253102
-0.5501781539496094
0.08726774657006892
0.05075988410097486
-0.10857806106701404
-0.06606465596144287
-0.181798248096191
-0.060345229507873334
-0.22335033210637414
-0.08161597687444318
0.0776843931862111
0.09789592134600113
-0.17037466477197577
0.1887751584912342
0.18796705370700756
0.2675078523795325
0.1713060172418051
0.3229718739392962
0.20932482634562954
0.38747014516190337
0.3509080901736874
0.1852191607204939
0.3615134505878457
0.02869354474185034
0.3221628868511715
-0.10373930836829105
0.11463086620112578
-0.2614860136414248
0.006988681039571474
-0.6492232838328266
0.13681229265298098
-0.18023859141022905
0.01521234830969891
-0.2177689376783306
0.12713199052924654
0.17782897164670924
0.141661047287086
0.04021078228495647
0.03461914103009728
0.25396202058561657
-0.09586559246600372
-0.04057294809416017
0.14922456200808318
0.26215542889183324
-0.013910612912154816
-0.024007553720616467
-0.41579671685187053
0.05413231196990482
-0.23128728670697365
0.09116784450356782
0.12103195796665683
-0.16805071189010454
-0.25236688251341105
0.030963362636890927
0.16381945022151673
0.06555982734034231
-0.15676498916351786
0.18452221123945922
-0.22849961719887332
0.06473111469437232
0.3112084900227907
0.11758369768880515
0.11771296378460758
-0.17459757269410375
0.30715560146933724
0.08388520771112351
0.004239693143461098
0.6680618171966074
0.10726888474594286
-0.10065337098541577
-0.30096299374493685
0.15222177176698765
0.047715752446484995
0.16401871327833653
-0.17903664961044596
0.14506042018242965
0.16327198920376965
0.08134425064220083
-0.11133303154716587
-0.27985405449689843
-0.2607007714315077
-0.033498645702147875
-0.43393027939609347
-0.1638296990469857
0.2969360156098451
0.004473947834934425
0.12060270190549723
-0.18170843305754306
0.3269856507234681
-0.008425722913233253
-0.03283714250982573
0.25977103336461016
0.03339707097238887
0.1611576147480171
0.13704060883431532
0.257917090270776
0.30022705623319235
0.08215527127594867
-0.02586465573758784
0.04919577934364979
-0.03368596371434329
-0.22461094127571646
0.1849873621791026
-0.18147937353505017
-0.05904010278006266
0.01617563384332719
-0.04238366056339622
-0.10379782761816067
-0.04659826157708408
-0.23107079333150432
0.1399824110598792
-0.04406601456802257
0.05577369276423984
0.03073043659189987
0.21823471896405627
0.19406416314603533
-0.021591813773801042
-0.27632287916259873
0.35132683852663454
0.28896598029258286
0.11776280635304769
0.15259949818968926
-0.0009504207952275027
-0.10825566729036198
-0.04646794570519926
-0.019082685724412726
-0.14934002564907478
0.059198188354602437
-0.0076314217044730435
-0.0358319085733177
-0.07918583777084541
0.05561383514122674
-0.18838342687756982
0.08147045315691846
0.21137759751566743
0.30596503096440253
0.33932513700914657
0.2698959867789752
0.276020915487279
0.007108144400947208
0.07880070383057006
0.17854382028508917
0.022223949142104737
0.4963983249053392
0.13425453997507716
0.12988000117104292
0.015663000549268176
0.19036774148789531
-0.057930055225260436
0.03051566167636849
0.03801659345537906
0.2695536354668424
-0.09554305418448628
-0.03488975478007094
-0.06165592499033114
-0.45597858182225853
-0.3363846450421051
-0.19396573544685008
0.05618975856410618
0.017758984915874788
-0.09617611884871337
-0.007936175056740368
-0.059461986141624665
-0.06785476412343161
-0.22746752374034
-0.004021312581696693
0.10031992374666475
0.13581391001727883
0.061183017139195765
0.2963415950979356
-0.06063999252444132
-0.07587471347853539
0.08035754612740074
0.5154584627162794
-0.1505225544924603
-0.08355495012519688
0.03611533460080247
-0.24237585730963976
-0.08748383663208062
-0.06838205368850814
0.027039195694404564
-0.06041913249124226
-0.2855038933491812
0.0744886026568443
0.07112172487777363
0.10331648879760741
0.19615089859706855
0.16062894941499536
-0.39490931951637265
0.04300597084562926
-0.20028681020026995
0.15479565717320895
-0.17136364379776076
-0.0170318945607202
0.25625172309613964
-0.3106667390028496
0.08213505235346948
0.40260497159010467
-0.3954753622343403
0.23013996473450954
-0.2341613994765235
-0.05833139582159484
-0.3080677775348763
0.09687063326592796
-0.17434348711417041
-0.002733349910481417
-0.4098399766720985
0.00659348503271521
0.09166178174456655
-0.09233297867954632
0.004597900550178778
-0.051435674148637624
-0.13422405128172976
-0.06925830681472218
-0.1943441653612604
0.10729729671949384
0.0784685017590733
0.13381650280218968
0.26808603509666257
0.23412693798475454
0.07477412741896926
-0.02311955603992025
0.07574222301009609
-0.20034417005451832
-0.15026884536332102
0.15911885683386176
-0.0006666888037804969
0.15043215511716185
-0.26035534398115334
-0.08719758076785715
0.11900620749276308
-0.23387628835816565
0.035089135939401925
0.20600170929098655
0.1317745203896107
0.07836742949034999
0.19044661979945554
-0.06910298657088008
0.23960206251834162
-0.18975163472443515
0.10385289797146138
0.17603930169782742
-0.003816512668482129
0.10993035354729447
0.004481538207389967
0.08613327319874019
0.19049422009341366
-0.1527739272095488
0.1344328974985711
-0.17155343811130286
-0.10978513740157393
-0.549138629131085
-0.03881241843434088
-0.21998414734414407
-0.32008247287027203
-0.06314860494981547
-0.014605840456629757
-0.10539908401535028
-0.19930051622082925
-0.004891720804561034
0.004141903541390902
-0.2174374862731088
0.3240427623214901
-0.016255980699973877
0.21689791399790648
-0.07496015378982293
0.08029978245719555
-0.020448405707643745
0.10557824220764485
0.024130810292573687
-0.3146801556130611
0.09396712732022704
0.052144792832017506
0.15449180941855806
-0.1627449834339178
0.012085747291455402
0.0729210000084126
0.12415487896273154
-0.1978523994398885
0.10061946482527981
-0.024116852549208007
-0.37610200116350534
-0.23278379098333205
-0.042964741799563756
-0.07171998391440632
0.013032050436516797
-0.09334579003148884
0.5531274127383868
-0.11696182127582362
0.14077045230397633
0.2621078883644414
0.1680699780362692
0.010812218106691923
-0.016779218291310037
0.07344375170499279
0.29238385009676937
-0.16185407171912852
0.22234685229938325
0.2880130399040373
-0.02157133010827309
0.22322932423835454
-0.08268459500075677
-0.02033332037466759
-0.08011774147015228
0.10860229661020945
0.15192797863633842
-0.2220183273709723
0.04442106185311873
-0.12260771324879144
-0.18136378322461344
0.05895366612707597
0.0360842891693497
-0.13566722536854978
0.19859610908636502
0.20288763731202908
0.04071285437231711
0.09731943533966986
0.131957966187064
-0.18922382906095872
0.4393829657391796
0.25384413728242594
0.10543532256823739
0.45312097850569105
0.27332711302050955
